{"type":"NeuralNetwork","sizes":[56,28,10],"layers":[{"weights":[],"biases":[]},{"weights":[[-0.34019389748573303,0.2749432325363159,0.8720909953117371,0.9819390177726746,0.9259093999862671,0.6843940019607544,0.385640412569046,-0.27934426069259644,0.8857226371765137,-0.1637357771396637,0.10892262309789658,0.09983213245868683,0.040561921894550323,0.14838969707489014,0.04416188970208168,0.45328375697135925,0.7130845189094543,-0.2245333343744278,-0.003355384571477771,-0.03646013140678406,0.259513795375824,-0.09840669482946396,0.22562211751937866,0.2498287856578827,-0.03125899285078049,-0.49376440048217773,-0.33365747332572937,-0.5368356704711914,-0.47723034024238586,-0.5108611583709717,-0.4165293872356415,-0.4494039714336395,-0.7698566317558289,-0.12167114019393921,0.00177223130594939,0.1350039690732956,-0.01860581897199154,0.07478303462266922,0.14870868623256683,-0.16985590755939484,-0.7738642692565918,-0.10009507834911346,-0.15788865089416504,0.0523434616625309,-0.08362981677055359,0.0038199962582439184,-0.04851685091853142,-0.3574090898036957,-0.4693754315376282,-0.18146957457065582,-0.16329000890254974,-0.08695513010025024,-0.17990408837795258,-0.24394798278808594,0.05166252329945564,-0.3009033203125],[0.13918742537498474,0.21447181701660156,0.43359673023223877,0.1993623971939087,0.28440964221954346,0.2997548580169678,0.051846206188201904,0.08883236348628998,-0.3531840443611145,-0.300876647233963,-0.0061161452904343605,0.0662957951426506,0.20217618346214294,-0.030864842236042023,-0.15225569903850555,-0.1744026243686676,0.05160815268754959,0.17486439645290375,-0.14401927590370178,-0.017358966171741486,-0.026482651010155678,-0.08696777373552322,-0.2330467700958252,-0.22073164582252502,-0.06332476437091827,-0.2014169692993164,-0.01226074155420065,0.19556431472301483,-0.0518907830119133,-0.14529742300510406,-0.1972619891166687,0.11742992699146271,-1.1579242944717407,-0.3979283571243286,-0.2085212916135788,-0.26699453592300415,-0.0438983254134655,-0.09399836510419846,0.423324316740036,0.26070231199264526,-1.168073296546936,-0.6993318796157837,-0.18745478987693787,0.2346690595149994,0.17110411822795868,0.1419774740934372,0.21218623220920563,0.20468679070472717,-0.17751528322696686,-0.22133387625217438,0.03380092978477478,0.08425433188676834,0.2054346203804016,-0.11516601592302322,0.08996954560279846,0.06500627100467682],[-0.02963285706937313,0.274495929479599,0.3491274118423462,0.5005274415016174,0.24575218558311462,0.6628338694572449,0.28347283601760864,0.008448299951851368,-0.3123510479927063,-0.1864997148513794,0.0617312453687191,0.052087072283029556,-0.20641815662384033,-0.18799647688865662,0.17674520611763,0.12944628298282623,-0.2650865316390991,-0.08336980640888214,0.16035103797912598,-0.07627610117197037,-0.2787393033504486,-0.25188273191452026,-0.18574553728103638,0.3264700770378113,-0.12173184007406235,-0.08480137586593628,-0.054599057883024216,0.036644063889980316,-0.32387712597846985,-0.20099331438541412,0.14206360280513763,-0.017125042155385017,0.5174501538276672,0.2092214971780777,-0.1443282514810562,-0.1979413479566574,-0.20812062919139862,-0.17912164330482483,0.033774636685848236,0.04668678343296051,0.2355223447084427,-0.11090970039367676,-0.19758187234401703,-0.27237817645072937,-0.13678181171417236,0.16184183955192566,-0.17294853925704956,-0.02201058156788349,0.1566096395254135,0.1526518315076828,0.007837633602321148,-0.12654955685138702,-0.10547421872615814,-0.017510615289211273,0.14787165820598602,-0.1366773247718811],[0.13494892418384552,-0.33492133021354675,-0.8971572518348694,-0.8708794713020325,-0.6352127194404602,-0.9270150065422058,-0.14582028985023499,0.36972367763519287,-0.42932313680648804,0.22957925498485565,0.11251167953014374,0.16285093128681183,0.10216645151376724,0.017445921897888184,0.003524190979078412,-0.16334529221057892,-0.5935970544815063,0.07152968645095825,0.053288936614990234,0.2621910870075226,0.08834119886159897,0.19500136375427246,-0.1055273711681366,-0.04598791152238846,0.33097732067108154,0.3476722836494446,0.20813018083572388,0.2864689528942108,0.3090384900569916,0.06556253880262375,0.3482098877429962,0.25147029757499695,1.1097055673599243,0.09751566499471664,0.044240474700927734,0.1003054678440094,0.014613755978643894,0.09892629832029343,-0.15192613005638123,0.040402915328741074,0.8706124424934387,0.09932122379541397,-0.14953364431858063,-0.07445066422224045,0.26119568943977356,0.1438562124967575,0.09649595618247986,0.21524669229984283,-0.012058640830218792,-0.11809941381216049,0.102381631731987,0.2199513167142868,0.1585908979177475,-0.020579028874635696,0.05095364525914192,0.4123552143573761],[-0.1417965441942215,-0.2270270586013794,-0.16802813112735748,-0.008169345557689667,-0.0009640359203331172,-0.0030473230872303247,-0.13473597168922424,0.12597569823265076,-0.9127185344696045,-0.09583791345357895,0.04879924654960632,0.10416402667760849,0.2700832486152649,0.1346425712108612,-0.06304187327623367,-0.5636758208274841,-1.1225236654281616,-0.16736151278018951,0.17208045721054077,0.1896332949399948,0.029677247628569603,-0.01176066417247057,0.018757281824946404,-0.3016374707221985,-0.12117505818605423,-0.055008433759212494,-0.26083776354789734,-0.07043977081775665,-0.1592337191104889,-0.2010943591594696,-0.03756175562739372,0.12929518520832062,1.2801847457885742,0.557903528213501,0.11854434013366699,0.17732441425323486,0.08454559743404388,-0.07822652906179428,-0.17581988871097565,-0.10739091783761978,1.3086429834365845,0.39665213227272034,0.09930361807346344,0.1150267943739891,0.2782033383846283,0.18867653608322144,-0.10016202926635742,-0.14270056784152985,0.31303974986076355,0.1593223363161087,0.41873565316200256,0.412270724773407,0.5371547937393188,0.26526498794555664,0.37986254692077637,-0.0158158577978611],[-0.08517588675022125,-0.02285677194595337,-0.10303571820259094,0.07046601921319962,0.21964144706726074,-0.4101245701313019,-0.1986577957868576,0.17636427283287048,-0.023603402078151703,0.03281792625784874,0.17622236907482147,0.31082072854042053,0.5269659161567688,-0.18469861149787903,0.09730719774961472,-0.17839448153972626,0.065714530646801,0.04643923044204712,-0.07852576673030853,-0.01661052741110325,0.3870283365249634,0.1736110895872116,0.02110764943063259,-0.17088252305984497,0.07722651958465576,-0.30654674768447876,-0.2743839621543884,0.1560109257698059,0.4320670962333679,0.004106770269572735,-0.2891143560409546,0.17646339535713196,-0.3963833451271057,-0.010554333217442036,0.16372011601924896,0.2600392699241638,0.6284589171409607,-0.16788311302661896,-0.030746685341000557,-0.10459160804748535,-0.5664743781089783,0.08387093245983124,0.013162868097424507,0.2639612853527069,0.46939900517463684,-0.041707348078489304,-0.02148212492465973,-0.03251435607671738,0.0570412315428257,0.1367250233888626,-0.16325484216213226,-0.2324017882347107,0.1347266584634781,-0.28901752829551697,-0.16008777916431427,-0.07122066617012024],[-0.17949195206165314,0.1970020830631256,0.4623148739337921,0.3101295530796051,0.440375953912735,0.37315189838409424,-0.11376119405031204,-0.2777581214904785,-0.3127247095108032,-0.43514180183410645,-0.07157788425683975,-0.08952690660953522,-0.14643803238868713,0.2145923525094986,0.39193087816238403,1.404052734375,-0.23271939158439636,-0.1866065263748169,-0.011433960869908333,0.08834061026573181,-0.08122734725475311,-0.008059478364884853,0.6974627375602722,1.6238762140274048,-0.26325279474258423,0.3950970768928528,0.15112240612506866,0.1055867075920105,-0.10855747759342194,0.017473600804805756,0.28565120697021484,-0.3938158452510834,-0.19028861820697784,-0.025583667680621147,-0.11337220668792725,-0.06778466701507568,-0.11529570817947388,-0.011351759545505047,-0.01728038117289543,-0.2998993992805481,-0.04701044782996178,0.16283836960792542,0.006494649685919285,0.137421116232872,0.10203704237937927,-0.031215649098157883,0.039030615240335464,-0.1010713055729866,-0.2990342378616333,-0.2654072344303131,-0.06075146421790123,-0.2201288640499115,-0.36202800273895264,-0.21255116164684296,0.048345424234867096,-0.211294025182724],[0.05292986333370209,-0.06952127069234848,-0.7739147543907166,-0.6912111043930054,-0.37174418568611145,-0.874424934387207,-0.16580183804035187,0.04336424544453621,-0.2202986776828766,0.09065405279397964,0.17825371026992798,0.24132022261619568,0.4345586895942688,0.05800170078873634,0.2480011135339737,0.15667743980884552,0.05172794312238693,-0.03241332992911339,0.026102211326360703,0.059142086654901505,0.14399820566177368,0.06916177272796631,0.06030888482928276,0.47141918540000916,0.21781009435653687,0.0614529624581337,-0.011782883666455746,0.14361849427223206,0.3305957317352295,-0.020953645929694176,0.19142137467861176,0.14197415113449097,0.3975084125995636,0.0976077988743782,-0.10600285232067108,0.17136430740356445,0.3343240022659302,0.059568434953689575,0.2073322981595993,0.21746587753295898,0.13352349400520325,-0.1635323017835617,-0.1474837362766266,0.3650186359882355,0.26161155104637146,-0.08559948205947876,-0.16813966631889343,-0.03940492868423462,-0.30245378613471985,-0.2908705174922943,0.029723314568400383,-0.17471323907375336,0.051751136779785156,-0.020645515993237495,-0.06032580882310867,0.15015439689159393],[0.07532865554094315,-0.026038091629743576,-0.08094027638435364,0.03554382175207138,0.1323210746049881,-0.015015151351690292,0.02750304900109768,0.07023672759532928,0.2286245971918106,-0.12692278623580933,0.16588380932807922,0.22986605763435364,-0.0003282948164269328,-0.27125656604766846,-0.1464443802833557,-0.10478520393371582,0.19466328620910645,0.05447417497634888,-0.266450434923172,-0.04320068657398224,-0.16121283173561096,-0.0495789460837841,0.04802173376083374,0.05458615720272064,0.18473604321479797,0.42790234088897705,0.343488484621048,0.08307845890522003,0.1239323541522026,0.16159389913082123,0.35012826323509216,0.3705718219280243,-1.2968169450759888,-0.48447272181510925,0.06646718084812164,0.005753303412348032,-0.11793587356805801,0.1654447466135025,0.3381378948688507,0.3500996530056,-1.3490262031555176,-0.6184116005897522,-0.13705328106880188,0.08604071289300919,0.141251802444458,-0.014853185042738914,0.44106271862983704,0.028297504410147667,-0.08690627664327621,-0.5143773555755615,-0.1307414323091507,-0.28856131434440613,-0.27016493678092957,-0.3344377875328064,-0.026984168216586113,0.028639251366257668],[0.16968421638011932,-0.06685063987970352,0.01915164291858673,-0.3364790976047516,-0.049418143928050995,0.07811659574508667,-0.14239338040351868,0.09244900196790695,0.99595046043396,-0.21283167600631714,0.06135716661810875,0.13921372592449188,-0.2903164029121399,0.15573540329933167,0.19108937680721283,1.0529464483261108,1.4802507162094116,-0.21324363350868225,-0.09741323441267014,-0.25104615092277527,-0.28522592782974243,0.0673447698354721,0.298587828874588,1.195637583732605,0.05388236045837402,0.22822976112365723,0.3897736966609955,0.10544782876968384,-0.033757783472537994,0.006798694841563702,0.33369123935699463,-0.11896928399801254,-0.16116240620613098,-0.0955759659409523,-0.2113032042980194,-0.16615183651447296,-0.18079623579978943,0.005489231552928686,0.17870666086673737,0.1747005730867386,-0.148499995470047,-0.2134106308221817,-0.17330476641654968,-0.1291220486164093,-0.13678300380706787,-0.13634178042411804,0.019177637994289398,-0.0967949703335762,-0.4451342821121216,-0.6718465685844421,-0.5070058107376099,-0.6521083116531372,-0.673560380935669,-0.3514217138290405,-0.40125903487205505,-0.2752475142478943],[-0.2075207531452179,0.1291128396987915,0.28080660104751587,0.21904505789279938,0.280044287443161,-0.06846007704734802,0.014925843104720116,-0.16005472838878632,0.35999351739883423,0.04354162514209747,-0.1682654321193695,0.22275714576244354,0.33702224493026733,-0.20595519244670868,0.3654259145259857,0.41037070751190186,0.2947552502155304,-0.08619692176580429,0.03640192374587059,0.17458099126815796,0.11943650245666504,0.1540767252445221,0.247979074716568,-0.07234089076519012,-0.15314148366451263,-0.14367002248764038,0.00540798157453537,0.06995557248592377,0.31864410638809204,-0.13516156375408173,-0.05660124495625496,-0.19910405576229095,-0.2890748381614685,-0.0593603290617466,0.04410162940621376,0.3638281524181366,0.3856430947780609,-0.06953219324350357,0.12864117324352264,-0.12590791285037994,-0.14467185735702515,0.20929569005966187,0.27385860681533813,0.014986634254455566,0.3827683925628662,-0.0917530283331871,0.18562287092208862,0.01443703006953001,-0.36911797523498535,-0.4250801205635071,-0.36717602610588074,-0.5790196657180786,-0.31841564178466797,-0.37453195452690125,-0.3248763978481293,0.07397665083408356],[0.04006224125623703,0.09482331573963165,-0.28282567858695984,-0.1915474534034729,-0.26160407066345215,-0.6821160316467285,-0.3208152949810028,0.08873358368873596,-0.15329192578792572,0.4557982385158539,0.15238672494888306,0.1920744925737381,0.5402581095695496,-0.055001966655254364,-0.20458075404167175,-0.2563076913356781,-0.333927720785141,0.2089422196149826,-0.08560023456811905,0.10001010447740555,0.330464243888855,0.2329573929309845,0.04893927276134491,-0.5403071045875549,0.22924841940402985,-0.08204399049282074,-0.07625140994787216,0.0910930186510086,0.4375143349170685,0.23991666734218597,-0.15356393158435822,0.3471721410751343,-0.47432971000671387,-0.14491255581378937,-0.054430242627859116,0.23962345719337463,0.24725034832954407,0.17345622181892395,0.3432382047176361,0.23991313576698303,-0.6250635385513306,-0.03581862151622772,0.15125608444213867,0.4011208713054657,0.43223094940185547,0.0375329926609993,0.1505374014377594,0.05631173029541969,-0.022686097770929337,-0.13998815417289734,-0.19058062136173248,-0.21621935069561005,0.2748734951019287,-0.07798392325639725,0.05565473064780235,0.41562318801879883],[0.04062805697321892,0.12170788645744324,0.30146679282188416,0.1630721241235733,0.24684013426303864,0.3739563226699829,-0.03737056627869606,-0.09000476449728012,0.2506992220878601,-0.3012348413467407,-0.010796178132295609,0.09132396429777145,0.15311254560947418,-0.18419629335403442,-0.2718926668167114,-0.1358737051486969,0.5525964498519897,-0.03452504053711891,-0.2290160357952118,0.14437472820281982,0.10120820999145508,-0.07302577048540115,-0.25039437413215637,0.09690025448799133,0.16201749444007874,-0.24970115721225739,-0.34161892533302307,-0.29318690299987793,-0.5262429714202881,-0.2714926302433014,-0.16354219615459442,0.08339030295610428,-0.4769539535045624,-0.06374393403530121,-0.3203131854534149,-0.3102210760116577,-0.1138172447681427,-0.19328542053699493,0.14296653866767883,0.16722367703914642,-0.4312970042228699,-0.3785124719142914,-0.17389270663261414,-0.11383530497550964,0.13551512360572815,0.13138647377490997,0.17467623949050903,0.2700827121734619,-0.027051908895373344,-0.37785178422927856,0.1634293496608734,0.11375323683023453,-0.010111702606081963,0.026769734919071198,0.17914269864559174,0.14575129747390747],[-0.17638583481311798,-0.13316363096237183,-0.0393955372273922,-0.10513898730278015,0.12199714779853821,-0.014516678638756275,-0.07392557710409164,0.16512325406074524,0.4064655303955078,0.05320865660905838,0.15508846938610077,0.28578633069992065,0.2561202943325043,0.03258681297302246,0.23512738943099976,0.40444236993789673,0.4823748469352722,0.04236511513590813,-0.05216921120882034,0.01950841397047043,0.19268575310707092,-0.0899842157959938,0.26377880573272705,0.3274776041507721,-0.18914325535297394,-0.03246339410543442,0.10356658697128296,0.1815156638622284,0.22844576835632324,0.11260531097650528,0.04588344693183899,-0.0812876969575882,-0.1760563850402832,-0.27224239706993103,0.021060975268483162,-0.06522462517023087,-0.00009984509233618155,0.0013077608309686184,0.024924386292696,-0.057559479027986526,-0.14708437025547028,0.009390619583427906,0.16341841220855713,0.1306738406419754,-0.06093648448586464,-0.14097744226455688,0.17707231640815735,-0.013185094110667706,-0.44617196917533875,-0.5100598931312561,-0.2630438804626465,-0.5709282755851746,-0.3884775638580322,-0.4839481711387634,-0.36929789185523987,0.1615190953016281],[0.14893290400505066,0.12187359482049942,-0.024780895560979843,-0.036677755415439606,-0.16643661260604858,-0.18837551772594452,0.2654772102832794,-0.13939623534679413,0.38124674558639526,0.37253421545028687,0.197078675031662,0.09177497029304504,-0.1419464498758316,0.07635568082332611,-0.036164846271276474,-0.6650664806365967,0.45406174659729004,0.24433571100234985,0.03018002025783062,0.1141539216041565,-0.1639629304409027,-0.005808633752167225,-0.33414602279663086,-0.9089182019233704,0.2578204572200775,0.2893567979335785,0.2635071575641632,0.021275164559483528,0.11356355249881744,0.15675924718379974,0.27403244376182556,-0.07482849806547165,-0.8036981225013733,-0.2599332928657532,0.17321594059467316,0.055757347494363785,-0.029346732422709465,0.17393843829631805,-0.0006253255996853113,-0.002692276844754815,-0.8125966787338257,-0.23156844079494476,-0.09411779791116714,-0.1344231218099594,-0.22991345822811127,-0.0441327802836895,0.25694960355758667,0.14004720747470856,-0.10289208590984344,0.04502096399664879,-0.1608823537826538,-0.10488250851631165,-0.34126007556915283,0.030169278383255005,0.009965933859348297,-0.151535302400589],[0.10950732976198196,-0.23148073256015778,-0.6946201324462891,-0.8403504490852356,-0.9647272825241089,-0.6635825634002686,-0.20020310580730438,0.40718597173690796,-0.9886736273765564,0.12461474537849426,-0.12131907045841217,0.11223722249269485,-0.19724924862384796,0.08186662197113037,0.28273898363113403,0.8263636827468872,-0.7406821846961975,0.040227942168712616,-0.1964298039674759,0.023214323446154594,-0.28402164578437805,0.034045688807964325,0.13824400305747986,0.6255964040756226,0.17500874400138855,0.5357779264450073,0.2428046315908432,0.2180698812007904,0.28654828667640686,0.3164113759994507,0.24291521310806274,0.16819429397583008,0.40583738684654236,-0.13947369158267975,0.010072315111756325,0.20291034877300262,0.09218583256006241,-0.002700593089684844,0.008589751087129116,0.3873319625854492,0.41532137989997864,-0.007119969930499792,0.13516153395175934,-0.018368396908044815,-0.12768176198005676,-0.10442281514406204,-0.08937947452068329,0.19382432103157043,0.3173483908176422,0.0620843768119812,0.2000255137681961,0.12765157222747803,0.08040440082550049,-0.06988920271396637,-0.06150267273187637,0.031190384179353714],[0.12270554900169373,-0.14427779614925385,-0.23878496885299683,-0.10448221862316132,-0.35269591212272644,-0.5142612457275391,-0.16113999485969543,-0.4068044126033783,0.00515699153766036,0.38053980469703674,-0.10112294554710388,0.16420888900756836,0.27137520909309387,0.3925758898258209,-0.053849946707487106,-0.20524537563323975,-0.4286912977695465,0.09797737747430801,0.3586514890193939,0.45342373847961426,0.24890227615833282,0.1323617696762085,0.18844380974769592,-0.0006314202328212559,-0.13827134668827057,0.09474015235900879,0.08972571045160294,0.26649439334869385,-0.04873880371451378,-0.08745741844177246,0.21990863978862762,-0.396437406539917,0.8481994867324829,0.43447190523147583,-0.06129782646894455,-0.06849917024374008,0.16302768886089325,-0.03422582149505615,-0.13521282374858856,-0.31708016991615295,0.6963962316513062,0.3512096703052521,-0.05281994119286537,0.17161431908607483,0.17553429305553436,0.15938504040241241,-0.28904831409454346,-0.43756693601608276,-0.5874964594841003,-0.06681102514266968,0.23024137318134308,-0.09976315498352051,0.2532258927822113,0.14224125444889069,0.15176880359649658,-0.09539654105901718],[-0.2367987483739853,0.05639365687966347,0.20725354552268982,0.2067071795463562,0.2045607566833496,0.039314478635787964,0.07667054980993271,-0.4084826707839966,0.19762466847896576,0.3378489017486572,-0.06288924068212509,0.19328591227531433,-0.03211266174912453,-0.12161321192979813,0.12920944392681122,-0.33035916090011597,-0.23282258212566376,-0.037498779594898224,0.22143013775348663,0.04167811572551727,0.4027084410190582,-0.045699138194322586,0.08128877729177475,-0.2226487398147583,-0.3099135160446167,-0.4930490255355835,-0.25326231122016907,-0.3866964280605316,-0.13338704407215118,-0.10910956561565399,-0.35043036937713623,-0.37212473154067993,-0.07396242767572403,0.02807226963341236,0.18992316722869873,0.37480467557907104,0.3167790472507477,-0.12603916227817535,-0.25551214814186096,-0.20512741804122925,-0.05134950950741768,0.3268122375011444,0.27103346586227417,0.24873770773410797,0.3385851979255676,0.05189063400030136,-0.23437975347042084,-0.23999419808387756,0.2149512618780136,0.3716532289981842,-0.08841325342655182,0.19973473250865936,0.134272500872612,0.17497992515563965,0.082644023001194,0.11340884119272232],[0.2065596580505371,-0.28176823258399963,-0.5314263701438904,-0.500329852104187,-0.19862544536590576,-0.6291752457618713,-0.1069643646478653,-0.2767009437084198,-0.001520066987723112,0.4540484547615051,0.03116954118013382,0.30135273933410645,0.21655255556106567,0.1644408106803894,0.15292620658874512,0.15843477845191956,-0.13492608070373535,0.07222249358892441,0.17746949195861816,0.4884168207645416,0.4194677472114563,-0.16538091003894806,0.09220423549413681,0.1165144219994545,0.10033208876848221,0.08865170180797577,0.06603793799877167,0.2724364995956421,0.23789653182029724,0.11839476227760315,0.09351783245801926,-0.3086119294166565,0.28410011529922485,0.04306676983833313,-0.28055572509765625,-0.06180805340409279,0.08625661581754684,-0.19816119968891144,0.02360539324581623,-0.2086687982082367,0.21851858496665955,0.11936251819133759,-0.12119051814079285,0.1563858538866043,0.2901182174682617,0.13883879780769348,0.22092977166175842,-0.1910647749900818,-0.6102089881896973,-0.18255333602428436,0.06382373720407486,0.08981513977050781,-0.05808554217219353,0.20568448305130005,0.3636648654937744,0.09286878257989883],[0.03220120817422867,0.10718698054552078,-0.05158459022641182,0.145934596657753,-0.1067277267575264,-0.08588046580553055,-0.37598416209220886,0.22415447235107422,0.7957445979118347,0.13784225285053253,-0.1840033382177353,0.17289584875106812,0.17299826443195343,-0.07441963255405426,-0.44242092967033386,-1.0530345439910889,0.7190008163452148,0.15586552023887634,-0.27748557925224304,-0.1691615730524063,0.022596875205636024,0.08647461980581284,-0.4217579960823059,-0.9592198133468628,-0.019965067505836487,-0.2027807980775833,0.08002770692110062,0.2248576134443283,0.3432025909423828,-0.0685202106833458,-0.1490759253501892,0.39493516087532043,-0.31950777769088745,0.11826831847429276,-0.16807343065738678,0.26977136731147766,0.29760560393333435,-0.13279207050800323,0.15701228380203247,0.33855411410331726,-0.2739717960357666,0.05333853140473366,0.18525414168834686,0.1158735603094101,0.009647764265537262,0.03687019273638725,0.3419961929321289,0.40510401129722595,0.3887619376182556,-0.06476552039384842,-0.41739749908447266,-0.21629448235034943,-0.17656295001506805,-0.3905412554740906,-0.10266658663749695,0.16542407870292664],[0.12849068641662598,-0.05140070617198944,-0.7942177057266235,-0.8012233376502991,-0.7033224105834961,-0.726750910282135,-0.09901921451091766,0.11117158085107803,0.1748019903898239,0.19656845927238464,0.18213574588298798,-0.00928445253521204,-0.19026613235473633,0.11267480254173279,-0.2897948920726776,-0.8339436650276184,0.2915972173213959,0.646287739276886,-0.16424134373664856,-0.30398616194725037,-0.07072441279888153,0.09773603081703186,-0.16791632771492004,-0.8174991011619568,0.35260775685310364,0.36785733699798584,0.1567372828722,0.18164101243019104,0.14482659101486206,0.180451437830925,0.20794706046581268,0.3523363173007965,1.0942511558532715,0.3368721008300781,0.1780434399843216,-0.04447663947939873,-0.25792616605758667,0.06447052955627441,0.06343262642621994,0.3932969272136688,0.9850764274597168,0.3250943720340729,0.15701423585414886,-0.05686667189002037,-0.2160535603761673,-0.15487785637378693,-0.2539772093296051,0.18730856478214264,0.28212934732437134,0.2324531525373459,0.09627240151166916,0.06808383762836456,-0.09681065380573273,0.2219453901052475,-0.07964871823787689,0.28555119037628174],[-0.029188746586441994,0.05896001681685448,0.43467384576797485,0.0953502431511879,0.2747824490070343,0.43631306290626526,0.20170097053050995,0.222835510969162,-0.10618703812360764,0.05868445336818695,-0.14899785816669464,-0.25961700081825256,-0.21229396760463715,-0.001142615801654756,0.1159125566482544,-0.1064089685678482,-0.1656702309846878,-0.1417306661605835,-0.04341570660471916,-0.21546533703804016,-0.19639283418655396,-0.06197672709822655,-0.12410736083984375,0.049003299325704575,-0.028143053874373436,0.04060233384370804,0.11411532014608383,-0.07266046106815338,-0.19283653795719147,0.0808580219745636,0.08946231007575989,0.007015824783593416,-0.7174978852272034,-0.1252392679452896,0.06685390323400497,-0.16302131116390228,-0.2740844190120697,0.19172991812229156,0.1482844352722168,-0.02666412480175495,-1.0978018045425415,-0.3134422302246094,0.17024123668670654,-0.23253504931926727,-0.17158310115337372,0.09929509460926056,0.16218075156211853,-0.06717550754547119,0.1480761617422104,-0.14397692680358887,-0.06678100675344467,-0.04635036736726761,-0.2106243520975113,-0.21855880320072174,0.00010149739682674408,0.04986139386892319],[-0.01994280144572258,-0.17895746231079102,-0.012047702446579933,-0.20756827294826508,0.20879457890987396,-0.19206924736499786,-0.20272496342658997,-0.08959367126226425,-0.18796159327030182,0.024676242843270302,0.15193229913711548,0.25500473380088806,0.31185486912727356,-0.11070089042186737,-0.25696566700935364,-0.2771798372268677,-0.32142651081085205,0.01893862523138523,0.13623204827308655,0.1919795125722885,0.2127922624349594,0.06775317341089249,-0.29840752482414246,-0.40682655572891235,-0.041377145797014236,-0.4090920388698578,-0.33801260590553284,0.08858839422464371,0.1127067506313324,-0.3105461299419403,-0.3905387818813324,0.07462676614522934,0.6830732822418213,0.2712404429912567,0.11606553941965103,0.15161502361297607,0.1779910773038864,-0.03695841506123543,0.11130204796791077,-0.2042919099330902,0.3424760401248932,0.10184333473443985,-0.16115112602710724,0.048306599259376526,0.12785124778747559,-0.02404150180518627,-0.19496996700763702,-0.13624519109725952,-0.04349075257778168,0.1684775948524475,0.10740051418542862,0.4025719165802002,0.20957955718040466,0.27324336767196655,0.03366425633430481,0.051828447729349136],[-0.1786467730998993,-0.11686049401760101,0.08092157542705536,0.18443343043327332,0.22315211594104767,0.497336745262146,0.24528664350509644,-0.0892934575676918,-1.2465102672576904,0.13248464465141296,-0.15194515883922577,-0.26393815875053406,-0.15684719383716583,0.24133922159671783,0.2651408612728119,0.48093146085739136,-1.5541143417358398,-0.04788030683994293,0.021491525694727898,-0.17919574677944183,-0.1238684356212616,0.07291494309902191,0.3029746413230896,0.09626591950654984,-0.17551474273204803,0.1543900966644287,0.05174574255943298,-0.21116316318511963,-0.2617374062538147,0.25722676515579224,0.03257523104548454,-0.36553388833999634,0.2848644256591797,0.29298490285873413,0.04271811246871948,-0.08024346828460693,-0.26007595658302307,-0.00934307649731636,-0.1562078595161438,-0.31131505966186523,-0.05205254256725311,0.33449786901474,0.19137181341648102,-0.00437418045476079,-0.31912776827812195,-0.04234066605567932,0.13138537108898163,-0.26975634694099426,0.098046213388443,0.39873436093330383,0.239531472325325,0.22203990817070007,-0.2257474958896637,0.21968503296375275,-0.03211243450641632,-0.1598924845457077],[-0.09939713031053543,-0.03601576015353203,0.3638301491737366,0.34108588099479675,0.22345653176307678,0.34627416729927063,-0.05674626678228378,-0.18746455013751984,-0.9627377986907959,0.0985674262046814,0.030509276315569878,0.11524350196123123,-0.06038527190685272,0.10822587460279465,0.07995521277189255,-0.41664019227027893,-1.0037649869918823,-0.07717876881361008,0.23627926409244537,0.05748729780316353,0.31270381808280945,-0.022046132013201714,0.05142686516046524,-0.2464611828327179,-0.1045779213309288,-0.03077547624707222,0.1299280822277069,0.30446574091911316,0.05374980345368385,-0.097962886095047,0.14324626326560974,-0.2971852123737335,-0.4697748124599457,-0.06818128377199173,0.0372200571000576,-0.022401126101613045,0.1441570371389389,0.17033235728740692,0.014922672882676125,-0.32212087512016296,-0.264885812997818,-0.059615571051836014,0.026219014078378677,-0.08873994648456573,0.06503713876008987,0.16216003894805908,0.019844619557261467,-0.364658921957016,-0.2549266219139099,0.21768718957901,0.35948997735977173,0.08909034729003906,0.35869070887565613,0.3187318444252014,0.21809907257556915,0.23614566028118134],[-0.09566580504179001,0.1698809266090393,0.25153884291648865,0.08996307849884033,0.2403862327337265,0.04152243956923485,0.24276331067085266,0.017123650759458542,-0.029569992795586586,0.3047717809677124,-0.1992444545030594,-0.03308771550655365,0.0974518433213234,-0.19114792346954346,-0.3141845762729645,-0.8917650580406189,-0.4340898394584656,0.13237042725086212,0.15949779748916626,-0.009537596255540848,-0.09269672632217407,0.008374445140361786,-0.16248787939548492,-1.2748172283172607,-0.2882768213748932,-0.05181068181991577,-0.09464643895626068,-0.024469338357448578,0.2524135112762451,0.19620034098625183,-0.2670333683490753,-0.12997494637966156,0.2532394528388977,-0.007671203464269638,0.07593253254890442,0.2699490487575531,0.1821189820766449,-0.08408574014902115,-0.17164593935012817,-0.16203418374061584,0.3047190010547638,0.43172687292099,0.21382251381874084,-0.06817279756069183,0.15213918685913086,0.17168889939785004,-0.050378888845443726,-0.24723774194717407,0.3749437630176544,0.32726162672042847,-0.014744516462087631,0.11121687293052673,0.09835850447416306,-0.029676983132958412,-0.13273335993289948,-0.15892243385314941],[-0.06809432804584503,0.08544715493917465,0.5896582007408142,0.5288639068603516,0.4786570966243744,0.6420437097549438,0.4423303008079529,-0.2946438491344452,0.688421368598938,0.007445307914167643,-0.03017512708902359,0.04535479098558426,-0.2508050501346588,0.39007046818733215,0.21740856766700745,0.6791603565216064,0.4231702387332916,-0.1192835345864296,0.24767692387104034,0.20782935619354248,-0.12149592489004135,0.2114163041114807,0.23649299144744873,0.38467884063720703,-0.05265083536505699,-0.25678297877311707,0.015253865160048008,-0.3529013693332672,-0.464030385017395,-0.10767686367034912,-0.16280537843704224,-0.18460990488529205,0.087725430727005,0.2740686535835266,0.1942960023880005,-0.17315475642681122,-0.00898646004498005,-0.06210410222411156,-0.17928875982761383,-0.3652680218219757,0.46174755692481995,0.3182622492313385,0.2098933756351471,0.028117090463638306,-0.36916297674179077,-0.15895052254199982,-0.12547744810581207,-0.4085827171802521,-0.6058768630027771,-0.24080653488636017,-0.19585281610488892,-0.32390615344047546,-0.4999229907989502,-0.31346067786216736,0.0128533486276865,-0.35703566670417786],[-0.1521114706993103,-0.05413855239748955,0.13534997403621674,0.1377279907464981,0.10294580459594727,0.28726866841316223,-0.1526939868927002,-0.10581479966640472,0.8183264136314392,-0.011737232096493244,-0.1291719675064087,-0.10935558378696442,-0.4529154300689697,0.2387307584285736,-0.01710370182991028,-0.35031184554100037,0.9670284390449524,0.2171812504529953,0.005135198589414358,0.23721231520175934,-0.16249361634254456,-0.35154712200164795,-0.0166462454944849,0.0737781748175621,-0.19628065824508667,0.618009626865387,0.5690951347351074,0.3230517506599426,-0.21838435530662537,0.29886794090270996,0.5876785516738892,-0.2918424904346466,-0.06608208268880844,0.06901191920042038,-0.3409324288368225,-0.271727979183197,-0.324443519115448,0.10035154968500137,0.05732109025120735,-0.17231100797653198,0.0902526006102562,0.13352614641189575,-0.35711079835891724,-0.08657585829496384,-0.44548144936561584,0.041760027408599854,0.1233983188867569,-0.16035036742687225,-0.5771942138671875,-0.22807252407073975,-0.1959739476442337,-0.12344194948673248,-0.318449467420578,-0.04623529314994812,0.19777368009090424,-0.06664946675300598]],"biases":[-0.1531638354063034,-0.27352482080459595,-0.31568723917007446,0.2659075856208801,0.34651699662208557,0.2055910974740982,-0.11962012946605682,0.08736101537942886,-0.22230133414268494,-0.1207406222820282,0.03744301199913025,0.38417595624923706,-0.3159307837486267,0.06825827807188034,-0.04652654379606247,-0.1509608030319214,0.31016942858695984,0.1289364993572235,0.42532879114151,-0.12312209606170654,-0.19621965289115906,-0.1043417900800705,0.2939901649951935,0.01603907346725464,-0.08952854573726654,-0.06352746486663818,0.015356098301708698,-0.41527682542800903]},{"weights":[[0.7425589561462402,-0.20957857370376587,0.41261863708496094,-0.32581785321235657,0.2851158082485199,-0.3405335545539856,-0.12962841987609863,-0.28045132756233215,-0.9624536633491516,-0.07879146933555603,-0.5706870555877686,-0.7184272408485413,0.800991415977478,-0.40182575583457947,-0.716910183429718,-0.45252057909965515,-0.5901709794998169,-0.05196107551455498,-0.8144370317459106,-0.3603229820728302,-0.0918910875916481,-0.31814369559288025,0.2176300585269928,-0.44562190771102905,-0.7987926602363586,-0.4619464874267578,0.5047556161880493,-0.7954334616661072],[-0.28670403361320496,-0.09814521670341492,-1.1153504848480225,0.21559694409370422,0.13601048290729523,1.6950057744979858,-0.6024201512336731,0.5494553446769714,-0.46090245246887207,-0.7734857797622681,0.4045257270336151,1.086764931678772,-0.6017621755599976,-0.01642836071550846,-0.6284773945808411,-0.4296133518218994,0.4474897086620331,0.48452630639076233,0.2918807566165924,-0.0035870312713086605,-0.7739592790603638,-1.0721319913864136,0.882617712020874,-0.812155544757843,0.0714857429265976,0.022658059373497963,-0.979599118232727,-1.5494881868362427],[0.05031662806868553,-0.9047483205795288,-0.18814921379089355,-0.1769751012325287,0.5365800857543945,-0.9150504469871521,0.03309270367026329,-0.3553776443004608,-1.5118218660354614,-0.9882392287254333,-0.5572891235351562,-0.9853999614715576,-0.8318720459938049,-0.5699350237846375,-0.4443208575248718,-0.5779441595077515,1.6143678426742554,0.1436774581670761,0.3129284381866455,-1.9769243001937866,-0.5427910089492798,-0.6854357123374939,0.24292351305484772,0.9933280944824219,0.6312967538833618,-0.12469737231731415,0.8486718535423279,-0.23778657615184784],[-0.7502123713493347,0.6146547794342041,0.3422609865665436,-0.07351570576429367,0.1376398205757141,-0.3457520008087158,0.8196768760681152,-0.284979909658432,0.3520713448524475,-1.0363296270370483,-0.807809054851532,-0.21307162940502167,-0.23753443360328674,-0.8167600631713867,-0.637947142124176,0.9954683184623718,-0.9439743161201477,-0.6227600574493408,-0.6555824279785156,-1.204572081565857,-1.1635600328445435,0.5516262650489807,-0.37592026591300964,1.5029289722442627,0.9603848457336426,-0.4946807622909546,-1.1582975387573242,-1.122623085975647],[-1.3672446012496948,-0.7168560028076172,-1.397745966911316,1.0516414642333984,-1.0794382095336914,0.0199769027531147,-0.2580406665802002,1.2401506900787354,0.26311513781547546,0.6991220116615295,-0.1678582727909088,0.2572923004627228,-0.9141637682914734,0.44585928320884705,0.18119829893112183,1.2428021430969238,-0.13559752702713013,-0.5592421293258667,0.5554484724998474,-0.18839773535728455,0.32087182998657227,-0.5167725086212158,-0.34108632802963257,-1.2439287900924683,-1.07869291305542,-0.9731318950653076,-0.8605228066444397,-0.38763007521629333],[-0.0742712989449501,1.0560027360916138,-0.529558539390564,-0.8735272884368896,-1.2108241319656372,0.011968671344220638,-1.62861168384552,-0.8129630088806152,0.9170547723770142,-1.207722544670105,-0.9464414715766907,0.1126062199473381,0.32265976071357727,-0.9297580718994141,1.1799179315567017,-0.8990347981452942,-1.2002581357955933,-0.09931348264217377,-0.49742254614830017,0.9117720723152161,0.17940391600131989,0.5974292159080505,-0.5303940773010254,-0.5691169500350952,0.2168428897857666,0.2209816426038742,-1.3673582077026367,0.061383213847875595],[-1.271902084350586,-0.8477681875228882,0.1579834371805191,0.6876746416091919,1.1943509578704834,-0.602953314781189,-1.8808993101119995,-0.47234684228897095,-0.9170495271682739,-1.2033246755599976,-0.6343910098075867,-0.7107018232345581,-0.38008278608322144,-0.7213345170021057,-0.13482768833637238,-0.5549124479293823,-0.13528844714164734,-0.5535715818405151,-0.6259591579437256,1.1466082334518433,1.3805001974105835,-0.5903038382530212,0.21135245263576508,-0.4318171441555023,-0.39337292313575745,0.9354516267776489,-0.8332080841064453,0.10918880254030228],[0.4501982629299164,-0.8039412498474121,-0.4141053557395935,-0.9207161068916321,-0.6487717032432556,0.43838950991630554,0.12946555018424988,-0.8487874865531921,-0.5046392679214478,-0.19074448943138123,0.7578960657119751,-0.16277040541172028,-1.034915566444397,0.028353922069072723,-0.008653190918266773,-0.4271109402179718,-0.4302312135696411,0.8236066699028015,-0.9751351475715637,-0.3427858352661133,-0.7407485246658325,0.09373051673173904,-0.3498624563217163,0.6008411049842834,-0.2496822029352188,0.5930255651473999,0.721755862236023,-1.0418826341629028],[-1.3805826902389526,-1.1900933980941772,0.3570650517940521,0.7546213269233704,0.2909345328807831,-0.8388854265213013,0.6969228982925415,0.04335610568523407,-1.077714443206787,0.46382200717926025,-0.797416090965271,-1.0336518287658691,-0.5583436489105225,-0.553200364112854,-1.205155849456787,1.1727386713027954,-0.12828776240348816,-1.0709580183029175,-0.24435056746006012,-0.6428371667861938,1.2941982746124268,-0.6625944375991821,-0.571116030216217,0.0877419114112854,-0.8314595222473145,-0.7451468706130981,-0.2049873322248459,0.22227786481380463],[1.2725932598114014,0.5048577189445496,0.23825031518936157,-1.8345626592636108,-2.172092914581299,-0.6257196068763733,1.1964988708496094,-1.0403454303741455,1.0370006561279297,1.8472394943237305,0.028373518958687782,-1.3830262422561646,0.5165238380432129,0.22431562840938568,-0.1745278388261795,-1.0931720733642578,-1.3678150177001953,-0.9707744717597961,-1.0952937602996826,-0.05590355768799782,-1.7044768333435059,0.5000609159469604,-1.2936913967132568,-1.1023621559143066,-0.7600494027137756,-1.2963944673538208,0.47204580903053284,1.1648919582366943]],"biases":[-0.24161115288734436,-0.4308539927005768,-0.6319035887718201,-0.49896347522735596,-0.7004435062408447,-0.2290419489145279,-0.3565792441368103,-0.7362300157546997,-0.11628738790750504,-0.8234532475471497]}],"inputLookup":null,"inputLookupLength":0,"outputLookup":{"zero":0,"one":1,"two":2,"three":3,"four":4,"five":5,"six":6,"seven":7,"eight":8,"nine":9},"outputLookupLength":10,"options":{"inputSize":0,"outputSize":0,"binaryThresh":0.5},"trainOpts":{"activation":"sigmoid","iterations":20000,"errorThresh":0.005,"log":false,"logPeriod":10,"leakyReluAlpha":0.01,"learningRate":0.3,"momentum":0.1,"callbackPeriod":10,"timeout":"Infinity","beta1":0.9,"beta2":0.999,"epsilon":1e-8}}