{"type":"NeuralNetwork","sizes":[56,28,10],"layers":[{"weights":[],"biases":[]},{"weights":[[0.0439034029841423,-0.16578149795532227,-0.035425297915935516,-0.1379280984401703,0.31078508496284485,-0.24905075132846832,-0.12036102265119553,-0.32561206817626953,0.06463894993066788,0.2890802323818207,-0.08537399768829346,0.23789158463478088,0.299180269241333,0.16341069340705872,-0.00010124662367161363,-0.4429032802581787,-0.009679238311946392,0.24150608479976654,0.13072293996810913,0.2962562143802643,0.29383644461631775,0.2721049189567566,-0.11791165173053741,-0.3205961585044861,-0.25246191024780273,-0.1346815526485443,-0.4138643443584442,0.167989581823349,0.45132526755332947,0.16032373905181885,-0.07422562688589096,-0.038825348019599915,0.2194652259349823,0.12251786142587662,0.2904123365879059,0.1660124808549881,0.2925872206687927,0.19354067742824554,0.1939227133989334,-0.34270769357681274,0.1526201069355011,0.48194026947021484,0.25399479269981384,0.19928428530693054,0.43363067507743835,-0.1706012487411499,0.01934126205742359,-0.30880415439605713,0.050414226949214935,-0.06319994479417801,-0.12637977302074432,-0.07374473661184311,0.16456104815006256,-0.03311619535088539,-0.10757193714380264,-0.02183636650443077],[0.30397462844848633,-0.3172758221626282,-0.9723555445671082,-0.8919355273246765,-1.1489624977111816,-1.131244421005249,-0.3282378911972046,0.3446277678012848,-0.8690482974052429,0.11038165539503098,-0.07736824452877045,0.08054561913013458,0.051580481231212616,-0.14166726171970367,-0.11001677066087723,0.459011048078537,-0.9354909658432007,0.22151559591293335,-0.02963525429368019,-0.19434134662151337,-0.30233222246170044,-0.060638491064310074,0.23222364485263824,0.3627623915672302,0.2820064425468445,0.7080016136169434,0.6194389462471008,0.2024623602628708,0.06632687896490097,0.4317830801010132,0.5099883079528809,0.4211716651916504,1.151260495185852,-0.08817777037620544,0.20513103902339935,0.005798081401735544,-0.059634145349264145,0.05150454863905907,-0.02703930251300335,0.11030707508325577,0.8494694232940674,0.019580340012907982,-0.0565703809261322,0.06480861455202103,-0.27858445048332214,0.17618602514266968,-0.26702895760536194,0.3302291929721832,0.15697430074214935,0.3074168860912323,0.27887436747550964,-0.03421049937605858,0.05211475491523743,0.24393127858638763,-0.023128485307097435,-0.12460480630397797],[0.3144439458847046,0.12818831205368042,-0.11766492575407028,0.0018058717250823975,0.030191758647561073,-0.08746504783630371,-0.2912193834781647,0.3590027391910553,-0.3862128257751465,-0.08526498079299927,-0.12546102702617645,0.1649024784564972,0.04418991506099701,-0.0006165707600302994,-0.28207463026046753,-0.2435014396905899,0.19118960201740265,0.2735902667045593,0.03757133334875107,0.23954831063747406,0.280195027589798,-0.10248589515686035,-0.2256573587656021,-0.022871514782309532,0.3122582733631134,0.3636031746864319,0.4330412745475769,0.39038336277008057,0.16558247804641724,-0.09655384719371796,0.07712428271770477,0.35766470432281494,-0.3067627251148224,-0.2695648968219757,-0.07614731788635254,-0.021399950608611107,-0.0010396052384749055,0.09944052994251251,0.4024468958377838,0.2798719108104706,-0.0609176829457283,-0.35698944330215454,-0.00838494673371315,-0.08133894205093384,-0.004138316959142685,-0.1817578226327896,0.10896434634923935,0.1646956205368042,0.02456890046596527,-0.2744220495223999,0.0345141626894474,-0.10961505770683289,0.13073410093784332,-0.14482171833515167,0.1635226309299469,0.11668051779270172],[-0.019581720232963562,0.025668013840913773,-0.262180358171463,-0.02993750013411045,-0.28344446420669556,-0.14748533070087433,0.09569090604782104,0.046401336789131165,0.29623275995254517,0.12056898325681686,-0.046104222536087036,0.30338770151138306,0.22650915384292603,-0.01658734120428562,0.23465611040592194,0.053393494337797165,0.3530305027961731,-0.05361294001340866,0.17279092967510223,-0.03874550387263298,0.20769387483596802,0.19368445873260498,0.2920897305011749,-0.03916649892926216,0.20099863409996033,-0.14540131390094757,-0.07978615164756775,0.03627953678369522,0.541157603263855,0.172885924577713,-0.009962649084627628,0.1180119514465332,-0.5903531908988953,-0.25142648816108704,0.09004872292280197,0.4346548318862915,0.25543344020843506,0.19003070890903473,0.17734140157699585,0.16759821772575378,-0.5534502863883972,-0.07611139118671417,0.3886040151119232,0.2506718337535858,0.12889675796031952,0.1515514999628067,0.2176714390516281,-0.1598322093486786,-0.04226095601916313,-0.20830871164798737,-0.5582671165466309,-0.3649161458015442,-0.4660244286060333,-0.43110835552215576,-0.35793060064315796,-0.06627366691827774],[0.1864924132823944,0.1389620453119278,0.4024646580219269,0.21707482635974884,0.34734290838241577,0.06416845321655273,0.06756363809108734,-0.09564551711082458,0.15012381970882416,-0.4321160912513733,0.08308161050081253,0.062309227883815765,0.2834114134311676,0.14440523087978363,-0.14143966138362885,0.05501236394047737,0.7125016450881958,0.054748471826314926,-0.10130279511213303,-0.05022897943854332,0.2757754921913147,-0.33069536089897156,0.0696636214852333,0.403378963470459,0.0030178306624293327,0.08397378027439117,-0.07875920832157135,-0.07305967062711716,-0.0507473349571228,-0.39761215448379517,-0.24798564612865448,0.24694712460041046,-0.7787384986877441,-0.10156519711017609,-0.08557464182376862,0.006740217097103596,0.04323943704366684,-0.17932431399822235,0.3137572407722473,0.20334747433662415,-1.036159873008728,-0.5815501809120178,-0.13332143425941467,-0.0568062886595726,0.26565444469451904,-0.032463327050209045,0.24179209768772125,-0.11001865565776825,-0.42921480536460876,-0.38987356424331665,-0.39498263597488403,-0.32841920852661133,-0.12128238379955292,-0.23451896011829376,-0.031933676451444626,0.25902947783470154],[0.04780742526054382,-0.38165462017059326,-0.959912121295929,-0.840186357498169,-0.646651029586792,-1.0318337678909302,-0.2151654213666916,-0.054543957114219666,-0.013695723377168179,0.1299252212047577,0.11661917716264725,0.17644740641117096,0.17312398552894592,-0.19761298596858978,-0.05007850378751755,0.21821901202201843,0.040030207484960556,0.383954793214798,0.18949775397777557,0.14036838710308075,0.23924966156482697,-0.07200571894645691,-0.052057117223739624,0.036483488976955414,-0.011717545799911022,0.07382820546627045,0.12035109847784042,0.2308429777622223,0.29865461587905884,-0.002998234238475561,0.12606897950172424,0.08493050932884216,0.37326014041900635,-0.014397284016013145,-0.07953907549381256,0.2761707901954651,0.19861511886119843,-0.17356836795806885,0.025951288640499115,0.06865544617176056,0.5201948881149292,0.24315446615219116,-0.1952490359544754,0.21139591932296753,0.08448874950408936,0.1453297734260559,0.0180429108440876,0.03177620843052864,-0.2376493364572525,-0.21443845331668854,0.1052541434764862,0.09068707376718521,0.23832595348358154,0.0780562311410904,0.08096525073051453,0.42934057116508484],[-0.06874548643827438,0.1281089186668396,0.7371246218681335,0.8016822934150696,0.5200743675231934,0.7649032473564148,0.2908231019973755,-0.08959086239337921,0.3570910096168518,0.26430389285087585,-0.17181973159313202,0.16909803450107574,0.019256697967648506,-0.18495184183120728,-0.11678438633680344,-0.3231442868709564,0.17680737376213074,-0.09936559200286865,-0.021035773679614067,-0.1476173996925354,-0.0032778282184153795,-0.04648759961128235,-0.17993246018886566,-0.10261388123035431,-0.06862908601760864,-0.5240573287010193,-0.41263213753700256,-0.08125699311494827,-0.14109696447849274,-0.15979009866714478,-0.1043381318449974,-0.25548073649406433,-0.5132107734680176,-0.1966591328382492,-0.19337980449199677,0.17230111360549927,0.08553116768598557,0.11226070672273636,-0.0004949905560351908,-0.3485104739665985,-0.5131436586380005,-0.22933602333068848,-0.22497345507144928,0.1621936708688736,0.09876596927642822,0.12187454849481583,0.21434490382671356,-0.113446906208992,-0.21954597532749176,0.08174187690019608,0.12271580100059509,-0.023377101868391037,-0.14051663875579834,-0.10849492996931076,-0.14357256889343262,-0.1910746544599533],[-0.03486236184835434,0.30190762877464294,0.08082892745733261,0.06814699620008469,0.23656173050403595,0.37155672907829285,0.1464478075504303,0.03680800646543503,0.619530975818634,-0.10678403079509735,0.07407012581825256,-0.20010006427764893,-0.047401685267686844,-0.17326103150844574,0.20089426636695862,0.4266776442527771,0.7584414482116699,-0.13591153919696808,-0.08361007273197174,-0.12792281806468964,-0.25801700353622437,0.18030191957950592,0.2579558789730072,0.15785062313079834,0.014043386094272137,0.23096445202827454,0.30536994338035583,-0.14787180721759796,-0.19562971591949463,0.11622227728366852,0.1443381905555725,0.20458532869815826,-1.4249483346939087,-0.5691070556640625,-0.05248060077428818,-0.04279166832566261,-0.06295646727085114,-0.14225198328495026,0.3871012032032013,-0.010474571958184242,-1.3517379760742188,-0.46395301818847656,0.15662163496017456,-0.2564889192581177,-0.2190733402967453,0.04759592562913895,0.32504507899284363,0.040718864649534225,-0.05245537683367729,-0.3796933889389038,-0.3498188555240631,-0.2656552791595459,-0.6812188625335693,-0.5149069428443909,-0.24382349848747253,-0.08248843997716904],[-0.026170149445533752,-0.1163872703909874,-0.41778531670570374,-0.25536444783210754,-0.14506131410598755,-0.13317398726940155,0.026678869500756264,-0.2478792369365692,-1.550652265548706,0.09563266485929489,-0.12897515296936035,0.22656284272670746,0.035770077258348465,-0.123975969851017,0.270638644695282,0.15231052041053772,-1.759837031364441,-0.14267535507678986,-0.19051626324653625,-0.018598107621073723,-0.025330744683742523,0.09072209149599075,0.2611205577850342,0.34114477038383484,0.09427231550216675,-0.30083927512168884,-0.3089253604412079,0.12673091888427734,0.11508868634700775,-0.020940087735652924,0.22742769122123718,-0.04642167314887047,-0.19944941997528076,0.05044528841972351,-0.16138800978660583,-0.11728402972221375,-0.0862547755241394,-0.15184973180294037,-0.05244125425815582,-0.005385625176131725,-0.2604294419288635,0.14423680305480957,0.07252944260835648,0.015496118925511837,0.10024982690811157,0.09692929685115814,-0.04183286055922508,0.05761897191405296,0.08961785584688187,0.3244137763977051,0.3875587582588196,0.40370306372642517,0.3389063775539398,0.23889847099781036,0.03965314105153084,0.07266415655612946],[0.0640810877084732,-0.07400239259004593,-0.015154305845499039,0.07747185230255127,0.33751481771469116,0.21775084733963013,0.07219778746366501,0.13525857031345367,-0.13889312744140625,-0.4288823902606964,-0.16773702204227448,0.2696349620819092,0.19904716312885284,-0.12322133034467697,-0.07821313291788101,0.6823525428771973,-0.014095135033130646,-0.10640696436166763,0.10744808614253998,0.11855631321668625,0.373374342918396,-0.2098388522863388,0.04422035813331604,0.9018742442131042,0.26535114645957947,-0.1694914549589157,-0.19750910997390747,-0.1306225061416626,-0.2923753559589386,-0.3635532855987549,-0.22945968806743622,-0.11977256834506989,-0.3420148491859436,-0.28916028141975403,-0.1625327318906784,-0.09324443340301514,0.3359186053276062,0.07020159065723419,0.18698693811893463,0.2359066754579544,-0.5247592926025391,-0.39258402585983276,-0.2376476675271988,0.12985144555568695,0.10950915515422821,-0.13968361914157867,0.03560587018728256,-0.0012793312780559063,-0.14705687761306763,-0.32994648814201355,-0.06519189476966858,-0.1932687759399414,-0.0008238418377004564,-0.2503690719604492,0.1991504281759262,0.2623041272163391],[-0.19435685873031616,0.28536489605903625,0.5684439539909363,0.21752285957336426,0.2944914400577545,0.25320473313331604,0.19626666605472565,0.07706771045923233,0.896209180355072,0.06803335249423981,-0.0069343531504273415,-0.21921852231025696,-0.3721405863761902,-0.15042684972286224,0.036764033138751984,0.05457448586821556,1.101271390914917,-0.08028801530599594,-0.04657651111483574,0.04151470959186554,-0.04463743418455124,0.17194020748138428,0.1616164743900299,0.030125504359602928,0.06973367184400558,0.25267133116722107,-0.09217653423547745,-0.31500187516212463,-0.3117801249027252,0.09404075890779495,-0.23458179831504822,-0.09057468920946121,0.16816435754299164,-0.12573623657226562,0.011651317588984966,-0.15495096147060394,-0.3615957200527191,-0.1940130740404129,-0.1927613466978073,-0.16489294171333313,0.049395594745874405,0.25082287192344666,0.28580746054649353,-0.1879199743270874,-0.22080709040164948,0.05256218463182449,0.17061199247837067,-0.1851494014263153,0.26918742060661316,-0.1347215473651886,-0.38138923048973083,-0.36380597949028015,-0.4612292945384979,-0.08508570492267609,-0.10088829696178436,-0.4147171378135681],[-0.20027154684066772,-0.176175057888031,0.47049325704574585,0.6901879906654358,0.5333559513092041,0.740864634513855,0.43324610590934753,-0.2987429201602936,-0.5716475248336792,-0.22699859738349915,-0.008168008178472519,0.04394054040312767,-0.34387004375457764,0.001804509200155735,0.3173278868198395,0.8768872022628784,-0.7615001797676086,-0.5489162802696228,-0.14899256825447083,-0.242391899228096,-0.3156619369983673,-0.06410862505435944,0.39724788069725037,0.8346405029296875,-0.3700437545776367,-0.22274649143218994,-0.2834770381450653,0.05006784573197365,-0.04627273976802826,0.025235677137970924,-0.05699406564235687,-0.010518860071897507,-0.7323499917984009,-0.23364977538585663,0.17268379032611847,-0.003170953830704093,-0.0008577132248319685,0.011933558620512486,0.17121802270412445,-0.12480910122394562,-0.7084874510765076,0.06004677712917328,-0.1491953432559967,-0.13708284497261047,-0.22684763371944427,-0.17672352492809296,-0.03743692860007286,-0.09660537540912628,-0.44130197167396545,0.0467485710978508,-0.09643898159265518,-0.01619771681725979,-0.15742743015289307,-0.31290093064308167,-0.17831040918827057,-0.1683969497680664],[0.20101039111614227,0.030902693048119545,-0.015526101924479008,0.1471429467201233,0.2831515669822693,0.31771036982536316,-0.034405943006277084,0.10837573558092117,-0.43248623609542847,-0.11377178877592087,-0.08007156848907471,-0.06982173770666122,-0.02700061723589897,0.13829545676708221,-0.1682213693857193,-0.2874922752380371,0.26869821548461914,0.07842601090669632,-0.03463912382721901,0.13507819175720215,-0.09159630537033081,-0.09787052124738693,0.010209913365542889,-0.18282942473888397,0.05879723280668259,0.6113137602806091,0.5476372241973877,0.23573756217956543,0.015466377139091492,0.17510542273521423,0.39340174198150635,0.0047315629199147224,-0.6974086165428162,-0.2557900846004486,-0.09285368770360947,-0.32537540793418884,-0.17267878353595734,-0.018801478669047356,0.4470268487930298,0.2415514886379242,-0.7645421624183655,-0.4655475914478302,0.002812881488353014,-0.013211586512625217,-0.01281468290835619,-0.018955638632178307,0.4365341067314148,0.18388530611991882,-0.07241275161504745,-0.3863467872142792,-0.24666304886341095,-0.002965289633721113,-0.1170990914106369,0.10901529341936111,-0.07247294485569,-0.15463970601558685],[0.1248408704996109,0.08834275603294373,-0.14068511128425598,0.2263038456439972,0.30208277702331543,-0.16654881834983826,0.03333244472742081,0.27471521496772766,0.17704181373119354,0.25588932633399963,-0.11946999281644821,0.24343569576740265,0.06987259536981583,0.11833792179822922,-0.6693349480628967,-1.6381897926330566,0.135846808552742,0.16710181534290314,0.03309612721204758,0.187666118144989,0.2659889757633209,-0.12683072686195374,-0.7633596658706665,-1.7966549396514893,0.16507360339164734,-0.5922139883041382,-0.4882984757423401,-0.5556262135505676,-0.4228093922138214,-0.5111291408538818,-0.6474145650863647,0.13411396741867065,0.4027787148952484,-0.010238831862807274,0.1575455665588379,0.005296885035932064,0.16839714348316193,-0.1895916759967804,-0.074348084628582,0.17774710059165955,0.17831110954284668,0.043763697147369385,0.2578014135360718,0.02126380428671837,0.17591522634029388,-0.1863890141248703,0.035352520644664764,0.027875982224941254,0.5099207758903503,0.29347652196884155,0.4632260203361511,0.38377490639686584,0.507747232913971,0.21113866567611694,0.04658333957195282,0.20596539974212646],[-0.09274010360240936,0.08809934556484222,-0.27852243185043335,0.009704798460006714,0.05889159440994263,-0.009171576239168644,-0.11995252966880798,0.018065452575683594,0.02200995944440365,0.1276470571756363,-0.11072584241628647,0.022631177678704262,0.26050007343292236,0.1893518567085266,-0.33956965804100037,-0.8578093647956848,-0.06397756189107895,0.24492229521274567,0.006520735565572977,0.04256737604737282,0.2403692752122879,0.07021471858024597,-0.4829052984714508,-1.1077086925506592,0.13167493045330048,-0.02832096442580223,0.1794385015964508,0.06477424502372742,-0.0002507113676983863,-0.26270198822021484,0.01991630718111992,-0.0714338943362236,-0.21542127430438995,-0.00819494016468525,-0.12697124481201172,-0.06365075707435608,0.30143022537231445,-0.11845943331718445,0.26914694905281067,0.09965882450342178,-0.17495086789131165,-0.05744173005223274,0.1166955977678299,0.2494775950908661,0.31088101863861084,-0.0070179905742406845,0.2231294810771942,0.04096701741218567,0.1872253119945526,0.1482875645160675,0.14813290536403656,0.11339577287435532,0.049769122153520584,-0.015281065367162228,-0.026133643463253975,0.10040764510631561],[-0.037000905722379684,-0.46324989199638367,-0.21288655698299408,0.055166661739349365,-0.30490827560424805,0.14870312809944153,-0.12516409158706665,-0.27482742071151733,1.208059310913086,0.14804595708847046,0.0020723294001072645,-0.11810168623924255,-0.22387677431106567,0.153484046459198,0.274911105632782,0.47086119651794434,1.026139259338379,-0.011831858195364475,-0.043618056923151016,-0.25086456537246704,-0.24748720228672028,-0.07083859294652939,0.07648676633834839,0.7813845872879028,-0.29656362533569336,0.19488947093486786,0.19865114986896515,0.44613367319107056,0.04448635131120682,0.15285658836364746,0.3904370069503784,-0.069549061357975,-0.592521607875824,0.23429854214191437,-0.07848862558603287,-0.15497958660125732,-0.21007685363292694,-0.043916571885347366,-0.05053451284766197,-0.008615391328930855,-0.6210158467292786,0.04772964492440224,-0.17995092272758484,-0.21214516460895538,-0.3559119701385498,-0.1624438613653183,-0.01987151801586151,-0.14291556179523468,-0.8837670683860779,-0.35594838857650757,-0.25221970677375793,-0.17890629172325134,-0.31319770216941833,-0.1604606956243515,-0.14578555524349213,0.170355424284935],[0.1989809274673462,-0.14822523295879364,-0.3515103757381439,-0.13481900095939636,-0.274501234292984,-0.45939430594444275,-0.18673266470432281,-0.24648098647594452,0.4645542502403259,0.1847863793373108,0.17589589953422546,0.12705494463443756,0.3383425176143646,0.09022814780473709,0.20837858319282532,0.39976605772972107,0.1192299872636795,0.15958036482334137,0.09740207344293594,0.2824230492115021,0.3894072473049164,0.30755889415740967,0.354218453168869,0.06519591808319092,-0.15824244916439056,-0.10975217819213867,-0.1090550422668457,0.09456934034824371,0.3825664520263672,-0.06538348644971848,-0.26648998260498047,-0.15023021399974823,0.07660184800624847,-0.08485481142997742,0.15247982740402222,0.43464913964271545,0.318328320980072,0.11936481297016144,0.1001257374882698,0.04393623024225235,-0.20623843371868134,0.30362290143966675,0.007799538318067789,0.16058729588985443,0.3996369540691376,-0.12431541830301285,-0.05961299687623978,-0.21879133582115173,-0.24189002811908722,-0.12381632626056671,-0.1857321709394455,-0.29087796807289124,-0.2251191884279251,-0.5505497455596924,-0.014458554796874523,0.1268027126789093],[-0.1733517348766327,-0.35858309268951416,-0.25769105553627014,-0.105515256524086,-0.06147689372301102,-0.23610571026802063,-0.042760808020830154,-0.19328247010707855,-0.6119996309280396,-0.008816425688564777,-0.11544902622699738,0.022156156599521637,0.23679770529270172,0.043429818004369736,0.10989003628492355,-0.3504805266857147,-0.8795543909072876,-0.12810596823692322,-0.052657295018434525,0.03286121413111687,-0.05998679995536804,-0.13422133028507233,0.10656951367855072,-0.2137521356344223,-0.087361179292202,-0.2697390019893646,-0.010064887814223766,0.2508143484592438,0.18384608626365662,-0.1591908186674118,0.07542920112609863,-0.08132437616586685,1.493554711341858,0.6038304567337036,-0.21461765468120575,-0.000901984516531229,-0.009158204309642315,0.034999169409275055,-0.21696826815605164,0.05590393394231796,1.4342074394226074,0.47033753991127014,-0.04727859050035477,0.024699851870536804,0.13859741389751434,-0.032699041068553925,-0.3762414753437042,-0.23546700179576874,0.2286657840013504,0.04836566746234894,0.3521026074886322,0.4496574103832245,0.3531799614429474,0.18665435910224915,0.14827892184257507,0.06804831326007843],[0.10246426612138748,-0.03832758963108063,-0.46250292658805847,-0.5371297597885132,-0.4511992633342743,-0.7668532133102417,-0.04983808100223541,0.21851781010627747,-0.17059095203876495,0.3510599136352539,-0.009539132006466389,0.17921479046344757,0.2546316683292389,0.09261628240346909,0.19905108213424683,0.57186359167099,-0.31056129932403564,-0.0434369221329689,0.04222863167524338,0.2937660813331604,0.11736781150102615,0.3643529713153839,0.07370663434267044,0.08164607733488083,0.3230416178703308,-0.26923009753227234,-0.20780189335346222,-0.07681749761104584,0.18027500808238983,-0.09716629236936569,-0.24927166104316711,0.32427144050598145,-0.24521797895431519,-0.03211174160242081,0.3038274049758911,0.46185165643692017,0.35602912306785583,-0.17485016584396362,-0.09422855824232101,0.11034836620092392,0.14792941510677338,0.027183419093489647,0.09141499549150467,0.021160751581192017,0.16362100839614868,-0.174378901720047,-0.09576987475156784,0.23132246732711792,0.11469624936580658,-0.08972610533237457,-0.3469250500202179,-0.33678096532821655,0.019422845914959908,-0.07965563237667084,-0.02823444828391075,0.06590370833873749],[-0.005476507358253002,-0.15961413085460663,-0.047650206834077835,0.1960747241973877,0.4169038236141205,-0.08869443088769913,0.10199736058712006,-0.39510899782180786,-0.7031757235527039,0.32264187932014465,-0.17418958246707916,0.04890791326761246,0.4499466121196747,-0.05638008192181587,0.46457985043525696,0.1716369092464447,-0.9263206720352173,-0.2373005747795105,0.013333626091480255,0.08556904643774033,0.3629968464374542,0.26614412665367126,0.387693852186203,-0.17276164889335632,-0.33592045307159424,-0.25559213757514954,-0.29153212904930115,0.1576845347881317,0.13941621780395508,-0.051760051399469376,-0.1672729104757309,-0.33067333698272705,-0.36191844940185547,0.10139849036931992,0.017195571213960648,0.3474152982234955,0.1408810019493103,0.19039827585220337,-0.09432908147573471,-0.4422264099121094,-0.12268075346946716,0.025384817272424698,0.19558092951774597,0.25726255774497986,0.43388041853904724,0.13138288259506226,-0.10943741351366043,-0.32055050134658813,0.11958511173725128,0.3798500597476959,0.08194597065448761,0.3303735554218292,0.1293725073337555,0.20948739349842072,-0.02785330079495907,-0.16977940499782562],[-0.2244873195886612,0.1347540318965912,0.23436596989631653,0.3967449367046356,0.2525395154953003,0.402328759431839,-0.12532061338424683,-0.16814041137695312,1.0331090688705444,-0.2518593370914459,-0.07460681349039078,0.12228134274482727,-0.18564215302467346,0.04353033006191254,0.1606254279613495,0.23135003447532654,1.039062738418579,-0.13641011714935303,0.07167341560125351,-0.033214181661605835,0.0037742052227258682,0.18714337050914764,-0.041224244982004166,0.26310911774635315,-0.08472587168216705,0.07892501354217529,0.019163310527801514,-0.1790904551744461,-0.17704012989997864,-0.04226226359605789,-0.049072202295064926,-0.2859114706516266,0.5877640247344971,0.3292953372001648,-0.11451105028390884,-0.0009901351295411587,-0.2805734872817993,0.15696032345294952,-0.16764383018016815,-0.2057834267616272,0.5426836609840393,0.20910505950450897,-0.03357845917344093,0.09904521703720093,-0.018776144832372665,-0.04775285720825195,-0.019349301233887672,-0.22897520661354065,-0.038568105548620224,-0.13720640540122986,-0.03607407584786415,-0.2544431686401367,-0.2861403822898865,-0.3551722764968872,-0.21494920551776886,-0.21021601557731628],[0.03730544447898865,0.0317956879734993,0.08678295463323593,0.061574798077344894,0.13070274889469147,-0.02664618194103241,-0.15964487195014954,-0.17187891900539398,-0.1216857060790062,-0.006339445244520903,0.1233740821480751,0.00040552698192186654,0.1713174283504486,0.0830615907907486,0.07245483249425888,-0.17477330565452576,-0.6012307405471802,0.04333258792757988,-0.17534983158111572,0.3035106956958771,0.2224741280078888,0.029072389006614685,0.1028507798910141,-0.1152687519788742,-0.2173672467470169,0.033367838710546494,-0.3058519959449768,-0.023605022579431534,0.3991800546646118,0.0031180549412965775,-0.36800217628479004,-0.06443993747234344,-0.4355248212814331,-0.049974288791418076,0.108714759349823,0.49630308151245117,0.45574334263801575,0.09907649457454681,-0.05905871093273163,-0.19458945095539093,-0.19331470131874084,-0.1453941911458969,0.27893999218940735,0.06429797410964966,0.17225535213947296,-0.024249644950032234,0.04763270542025566,-0.13181667029857635,0.28980937600135803,0.09314443916082382,-0.13308294117450714,0.1783578246831894,0.2046719789505005,-0.13807880878448486,-0.048939671367406845,-0.19627535343170166],[0.25789299607276917,-0.035273510962724686,-0.21356894075870514,-0.15231356024742126,-0.2768782377243042,0.0037541359197348356,-0.17889517545700073,-0.09662111848592758,0.055650610476732254,-0.27125391364097595,-0.09783248603343964,0.1669362634420395,0.21514834463596344,0.03240856155753136,0.014045106247067451,0.7057004570960999,0.393324613571167,0.08652395009994507,0.06692728400230408,0.19928085803985596,0.19393309950828552,-0.10015152394771576,0.24389417469501495,0.6979507207870483,0.143959179520607,0.10442902147769928,-0.04749666154384613,-0.05053753778338432,-0.24891148507595062,-0.11638189107179642,-0.22344471514225006,0.05455027520656586,0.2845115661621094,0.19346554577350616,0.007125748321413994,-0.07268914580345154,0.0460858978331089,-0.166928231716156,0.08936400711536407,0.09179233759641647,0.6156153082847595,0.0006940948078408837,-0.2670867443084717,0.08182810992002487,0.010983593761920929,0.07149622589349747,0.06322415918111801,0.2775828242301941,-0.4514428377151489,-0.1424540877342224,0.012164692394435406,-0.210871160030365,-0.25063109397888184,-0.2242715060710907,0.20828749239444733,0.1629708707332611],[0.02726079151034355,-0.02087491936981678,0.019837798550724983,-0.22985871136188507,-0.1398281455039978,-0.1313241422176361,-0.3129641115665436,-0.031744252890348434,0.20016813278198242,-0.2726766765117645,-0.16759824752807617,-0.15190762281417847,-0.1464439481496811,0.01159804780036211,-0.024138635024428368,0.2224220186471939,0.3587200343608856,0.08029066026210785,-0.030772939324378967,0.10864141583442688,0.08435862511396408,-0.20478981733322144,-0.05297130346298218,0.28397268056869507,0.19514130055904388,0.2760556638240814,0.2340235710144043,0.1297340840101242,0.12802955508232117,0.0632965937256813,0.2117367684841156,0.245259091258049,0.18374279141426086,0.12739425897598267,-0.2504911720752716,-0.2521894872188568,-0.030325213447213173,-0.13066820800304413,0.1528826504945755,-0.09810947626829147,0.3178333342075348,-0.03207751363515854,-0.16952098906040192,-0.06351698189973831,0.07596827298402786,0.19762659072875977,-0.10796477645635605,-0.05927734449505806,-0.11102744936943054,-0.1952064335346222,-0.1876893937587738,-0.008974360302090645,-0.20230357348918915,0.11016125231981277,0.2051767110824585,-0.04565810412168503],[-0.3697282671928406,0.2103649377822876,0.5217154026031494,0.5654281377792358,0.2309958040714264,0.7082350254058838,0.25754091143608093,-0.31648942828178406,0.3859192132949829,0.023621393367648125,-0.1837480664253235,-0.06578776240348816,-0.39875471591949463,0.04464498534798622,0.10906392335891724,-0.13600754737854004,0.2274239957332611,0.12602826952934265,0.012171176262199879,-0.08113595098257065,-0.2954353094100952,0.0026348470710217953,0.05823666229844093,-0.2697657644748688,-0.021815799176692963,0.07483172416687012,0.16052402555942535,-0.19543272256851196,-0.015091292560100555,0.14475534856319427,0.1079108938574791,-0.32420262694358826,-0.2926025986671448,-0.07082007080316544,0.14857633411884308,-0.07353255152702332,-0.2180025428533554,0.024120407178997993,0.18263152241706848,-0.1110323816537857,-0.19984206557273865,0.030106784775853157,0.06669966876506805,-0.05714753270149231,-0.3354685604572296,0.14112164080142975,-0.030475040897727013,-0.21737542748451233,0.17478635907173157,-0.03844236582517624,0.1662645787000656,-0.09734795242547989,-0.37108537554740906,0.06749095022678375,-0.18281982839107513,-0.03491436317563057],[-0.16680899262428284,0.014863311313092709,-0.15890808403491974,0.0053963386453688145,0.18801388144493103,0.05670158192515373,0.02428060583770275,0.019828688353300095,-0.11341890692710876,0.34709280729293823,0.10750938206911087,-0.08039088547229767,-0.03370644152164459,0.06794694066047668,-0.2787531912326813,-1.3468599319458008,-0.10996999591588974,0.3667474687099457,0.08327991515398026,0.18238013982772827,0.1029469221830368,0.13912762701511383,-0.45348232984542847,-1.452414631843567,-0.20468208193778992,0.15736554563045502,0.10929768532514572,-0.06683861464262009,0.2629019320011139,0.03606226295232773,0.03488144278526306,0.04502420872449875,0.332190603017807,0.20259875059127808,0.18679873645305634,0.12144740670919418,0.25016045570373535,0.1979382336139679,0.17092473804950714,-0.07646452635526657,0.3671686351299286,-0.08124621957540512,0.04084723815321922,0.05576026067137718,0.07374189049005508,0.002453636610880494,-0.16144061088562012,0.0878547951579094,0.1320156306028366,-0.009075169451534748,-0.044193536043167114,0.24386563897132874,0.27840980887413025,-0.03198595345020294,-0.11364594101905823,0.044758040457963943],[-0.04364771768450737,-0.1539601981639862,-0.7802447080612183,-0.7240093946456909,-0.5260320901870728,-0.6642780900001526,0.029322359710931778,-0.03127802908420563,-0.4584091901779175,0.22985795140266418,-0.11010032147169113,-0.19786597788333893,0.02595151960849762,-0.16212312877178192,0.09000981599092484,-0.09442610293626785,-0.3892805874347687,0.1827332228422165,0.15045364201068878,-0.15950267016887665,0.009426609613001347,0.1631830781698227,0.029480481520295143,-0.1601601243019104,-0.013640424236655235,0.1355566680431366,0.4711536765098572,0.17348256707191467,0.34388023614883423,0.5079664587974548,0.2873077690601349,0.035732585936784744,0.9574751257896423,0.4244486689567566,0.2233390510082245,-0.04143008962273598,-0.16311083734035492,-0.08709749579429626,-0.0864509642124176,0.29459837079048157,0.9520593881607056,0.27312591671943665,-0.14571650326251984,-0.09680593013763428,-0.14548556506633759,-0.1823829710483551,-0.0868057832121849,-0.06333296746015549,-0.16369102895259857,0.14607255160808563,0.17983736097812653,0.04817890375852585,-0.0728703960776329,0.10327767580747604,-0.01525205746293068,0.29780521988868713],[-0.22047264873981476,-0.09888634830713272,0.21492749452590942,0.2761456370353699,0.14877034723758698,0.10400335490703583,0.08552271127700806,-0.33273744583129883,0.36745962500572205,0.19308553636074066,0.08248632401227951,0.13873574137687683,0.09458845108747482,-0.19770169258117676,0.2911587953567505,0.957227349281311,0.21943062543869019,-0.26132339239120483,-0.028462037444114685,-0.055510759353637695,-0.2023899108171463,0.04860470071434975,0.5928084850311279,0.9636411666870117,-0.2376963049173355,0.0328407809138298,-0.18153341114521027,0.023361939936876297,0.11738549172878265,0.035106249153614044,0.040329426527023315,-0.18672336637973785,0.6450743675231934,0.20673000812530518,0.1432294249534607,0.26568368077278137,-0.23209382593631744,0.1964912861585617,-0.16029921174049377,-0.32323044538497925,0.31842753291130066,0.3847499191761017,0.16929541528224945,-0.1143466904759407,-0.18273426592350006,-0.015060030855238438,-0.2178114354610443,-0.21772755682468414,-0.2285531759262085,-0.10513416677713394,-0.017136819660663605,-0.247618168592453,-0.36852356791496277,-0.06578449159860611,-0.20400063693523407,0.042098402976989746]],"biases":[0.27536875009536743,-0.08591722697019577,0.013422449119389057,0.3605589270591736,0.04279090464115143,0.4718354642391205,-0.05623677745461464,0.058649323880672455,0.3745970129966736,-0.012405941262841225,-0.40833497047424316,-0.29913413524627686,-0.2510960102081299,0.11209896206855774,0.2855569124221802,-0.2453792244195938,0.4578189253807068,0.1949087530374527,0.2912802994251251,0.24712981283664703,-0.23448187112808228,0.20352832973003387,-0.007417228538542986,-0.20018674433231354,-0.46771240234375,0.13046248257160187,0.19966930150985718,-0.0439884215593338]},{"weights":[[-0.62962406873703,-0.5324422717094421,-0.4662579596042633,-0.7622860670089722,-0.04943833500146866,-0.3081475794315338,0.24084089696407318,-0.6042514443397522,-0.4950876832008362,0.5471726655960083,0.25046637654304504,-0.20332974195480347,-1.1025296449661255,0.9064533114433289,-0.48910439014434814,-0.6987209320068359,-0.3460390567779541,0.2071235328912735,0.08989442139863968,-0.6174922585487366,0.39892318844795227,-0.3115563690662384,0.4602658450603485,-0.10262428969144821,-0.20407454669475555,-0.6277092695236206,-0.6274807453155518,0.15059369802474976],[0.9811437129974365,-0.5551480054855347,-0.3159891664981842,0.1730337291955948,0.17985603213310242,0.48486530780792236,-0.4377618432044983,-0.8484041690826416,0.14448775351047516,0.1932997852563858,-1.2942003011703491,-0.7440527677536011,-0.6697152256965637,0.49843281507492065,0.4153304994106293,-1.0011423826217651,0.7148128747940063,0.2713722288608551,0.4674782156944275,1.0803098678588867,-0.8146494626998901,1.0772228240966797,-0.40416911244392395,-0.45697274804115295,-1.459643006324768,0.09110677987337112,-0.5492555499076843,-0.8516318202018738],[-0.14252206683158875,-0.04749476537108421,-1.5314767360687256,-0.8877364993095398,-0.872432291507721,-0.03846190124750137,-0.1262168139219284,-1.1794459819793701,0.5629436373710632,-0.5418946743011475,-0.4752897322177887,0.6236059069633484,-1.4116730690002441,-0.7391201853752136,-0.7043190598487854,0.2722805440425873,-0.21256446838378906,1.0800132751464844,-0.5529467463493347,0.689887523651123,-0.12735144793987274,-0.33518651127815247,-0.314637690782547,-0.2757672369480133,-0.09477321058511734,-0.46444013714790344,0.25484204292297363,0.6410590410232544],[-0.8932676315307617,0.686112642288208,0.3101918399333954,-0.7591501474380493,-0.17644232511520386,-0.6365347504615784,-0.3040773570537567,-0.01013796217739582,2.0007240772247314,0.42858490347862244,-1.2596631050109863,1.400810956954956,0.5784521102905273,-1.0610601902008057,-0.49224135279655457,-1.1881744861602783,-1.0471210479736328,-0.04832518473267555,-0.09844612330198288,0.2445966601371765,-1.4760279655456543,0.018827110528945923,-0.35894060134887695,-0.20855410397052765,-0.20728729665279388,-0.8252031207084656,-0.09630149602890015,-0.5307160019874573],[-0.35565513372421265,1.340821385383606,-0.3618675470352173,0.7071357369422913,0.005148014985024929,1.3968696594238281,-1.7033865451812744,0.46678104996681213,-0.3979991674423218,-0.1789887696504593,-0.7310971617698669,-1.0095407962799072,-0.5269871354103088,-0.7859852910041809,-0.49335992336273193,0.718280553817749,0.5509349703788757,-0.8022382259368896,0.9644953608512878,-0.657126784324646,-0.7056171298027039,-0.3359995484352112,0.15935593843460083,-0.0306716226041317,-1.250510573387146,-0.9831877946853638,0.4548475444316864,-0.5085746645927429],[-0.5972898006439209,-0.9574412107467651,0.2322939932346344,-0.39008617401123047,0.15907545387744904,-0.4938361942768097,0.584979772567749,0.652588963508606,-0.3369852602481842,-0.5064684748649597,-0.15130239725112915,-0.7932049036026001,0.9094167947769165,1.0213348865509033,0.6638728976249695,-0.1703074872493744,-0.8553193211555481,-1.5779448747634888,-0.6819068789482117,-0.4235376715660095,-0.6898764371871948,-0.09769941121339798,-1.1619694232940674,-0.30511724948883057,0.3971022963523865,0.6141371130943298,-0.9353053569793701,-1.6509631872177124],[-0.24435780942440033,0.35249724984169006,-0.0989580973982811,-0.7414899468421936,-1.0991928577423096,-0.13452595472335815,-0.5155207514762878,-1.6279112100601196,-0.778607189655304,-1.3566070795059204,-0.09792815893888474,-1.1084638833999634,-0.18938444554805756,1.6564290523529053,0.29873940348625183,-1.0364266633987427,-0.702502965927124,1.1389963626861572,-0.6525661945343018,-0.899031937122345,0.18666614592075348,-0.6852802634239197,-0.6390856504440308,0.0062766349874436855,-0.0703868716955185,1.3632802963256836,0.7262216806411743,-1.0431790351867676],[0.24315203726291656,-0.5719294548034668,-1.303322196006775,0.7122725248336792,-0.5837032198905945,-0.8468947410583496,-0.1700330376625061,0.5182903409004211,-0.38459452986717224,-0.8116261959075928,0.6196210384368896,0.3663656711578369,-0.992752194404602,-0.35577085614204407,-0.42262881994247437,-0.46482738852500916,0.4370846152305603,-0.5990386009216309,0.1864161193370819,0.6460863947868347,-0.02030714973807335,0.5570769906044006,-0.9519286751747131,-1.0309520959854126,0.25636255741119385,-0.328754723072052,-0.586635410785675,0.32499784231185913],[-0.8985028266906738,1.738149881362915,0.21364322304725647,-1.1450749635696411,-1.2014833688735962,0.14866100251674652,-0.9743728041648865,-1.080574631690979,-0.45531824231147766,-0.4565528333187103,0.17809581756591797,-1.0638924837112427,-0.2847648561000824,-1.5394859313964844,-0.8840860724449158,-0.36568892002105713,-0.6664591431617737,0.6927159428596497,-0.47809451818466187,-1.0054326057434082,0.34574830532073975,-0.6344199180603027,0.36634522676467896,0.5177040100097656,-0.16859780251979828,-0.5325259566307068,0.6443390846252441,0.6502113342285156],[-1.1084519624710083,-1.8603360652923584,-0.10883335769176483,-0.3694823682308197,0.9071711897850037,-1.6462935209274292,0.4366065561771393,1.3473284244537354,-1.6327085494995117,0.4817664325237274,0.8111071586608887,0.6953259110450745,0.6696448922157288,-2.0962295532226562,-1.0395967960357666,1.3319659233093262,-0.8960516452789307,-1.718360424041748,-1.3666945695877075,-1.3489876985549927,0.7205711603164673,-0.9133592844009399,-0.0036946816835552454,0.17196275293827057,0.596852719783783,-1.4452626705169678,-1.5923835039138794,0.1608685851097107]],"biases":[-0.3183068335056305,-0.19972853362560272,-0.17213906347751617,-0.13565325736999512,-0.5548297166824341,-0.017484577372670174,-0.5602168440818787,-0.5473302006721497,-0.33706772327423096,-0.6323466300964355]}],"inputLookup":null,"inputLookupLength":0,"outputLookup":{"zero":0,"one":1,"two":2,"three":3,"four":4,"five":5,"six":6,"seven":7,"eight":8,"nine":9},"outputLookupLength":10,"options":{"inputSize":0,"outputSize":0,"binaryThresh":0.5},"trainOpts":{"activation":"sigmoid","iterations":20000,"errorThresh":0.005,"log":false,"logPeriod":10,"leakyReluAlpha":0.01,"learningRate":0.3,"momentum":0.1,"callbackPeriod":10,"timeout":"Infinity","beta1":0.9,"beta2":0.999,"epsilon":1e-8}}