{"type":"NeuralNetwork","sizes":[56,28,10],"layers":[{"weights":[],"biases":[]},{"weights":[[-0.11776465177536011,0.4292702376842499,0.8367085456848145,0.9407246708869934,0.9636455178260803,0.6894903779029846,0.32916080951690674,-0.15016919374465942,0.1967257857322693,-0.14053112268447876,0.10495691001415253,-0.11147987842559814,-0.12658517062664032,-0.01963355578482151,-0.12902085483074188,-0.26923421025276184,0.3000689744949341,-0.0811750516295433,-0.06293708831071854,0.05577787384390831,0.15696687996387482,0.16817429661750793,-0.03599737212061882,-0.34906837344169617,-0.23291078209877014,-0.10370228439569473,-0.09308358281850815,-0.18551191687583923,-0.20798347890377045,0.06800971180200577,-0.03934245556592941,0.02290468104183674,0.34112584590911865,0.2331220656633377,0.12039034813642502,0.12969659268856049,-0.01591651886701584,-0.06260553747415543,0.14599928259849548,-0.09055018424987793,0.1094631552696228,0.1442723274230957,-0.0963897854089737,0.04773169383406639,0.032760221511125565,-0.050326041877269745,-0.044425517320632935,-0.1856187880039215,0.08991808444261551,-0.014544490724802017,0.004262480419129133,0.23006302118301392,0.07911570370197296,0.22951717674732208,-0.19784234464168549,-0.32112935185432434],[-0.15509642660617828,-0.013012627139687538,0.628726065158844,0.6354591250419617,0.7020195126533508,0.6725777387619019,0.12635156512260437,-0.09777544438838959,1.055604338645935,0.15767036378383636,0.08646518737077713,-0.08757883310317993,0.04185348376631737,0.1098126545548439,0.029603157192468643,-0.1739790141582489,0.9262914657592773,0.015372629277408123,0.1274254024028778,0.0378238819539547,-0.05993005260825157,-0.08843106031417847,-0.15106147527694702,-0.48499026894569397,-0.06709399074316025,-0.44619083404541016,-0.1301540583372116,-0.20680953562259674,-0.14820319414138794,0.017494143918156624,-0.0013719986891373992,-0.17759239673614502,-0.8053458333015442,-0.07789725065231323,-0.020043306052684784,-0.1621812880039215,0.07920470088720322,-0.026821240782737732,0.23876231908798218,-0.2214665561914444,-0.865610659122467,-0.1000584065914154,0.03829934448003769,0.12063086032867432,0.011970804072916508,-0.014435259625315666,0.24265725910663605,-0.35787704586982727,-0.4883977472782135,-0.3226701319217682,-0.16938269138336182,-0.1328742951154709,-0.20522300899028778,-0.03410663455724716,-0.20426353812217712,0.014980106614530087],[0.19706442952156067,0.0005274224677123129,-0.21944744884967804,0.0011541666463017464,0.09966141730546951,-0.437400221824646,-0.3518248200416565,-0.047114722430706024,-0.10989058017730713,0.019767342135310173,0.18592070043087006,0.16127856075763702,0.30252891778945923,0.07763492316007614,-0.4215397536754608,-0.40786153078079224,0.21352675557136536,0.14232254028320312,0.1616945117712021,0.31663739681243896,0.16001449525356293,-0.020137686282396317,-0.4373064637184143,-0.2362177073955536,0.23422466218471527,-0.10311225056648254,-0.20012901723384857,-0.4015315771102905,-0.08240815252065659,-0.3562437891960144,-0.6093167662620544,0.1448362022638321,0.9134118556976318,0.05104291811585426,-0.15473388135433197,0.06507951021194458,0.17929162085056305,-0.10233668237924576,-0.18441537022590637,0.1304398775100708,0.7161104679107666,0.19096727669239044,-0.0661841481924057,0.00290857395157218,0.16667552292346954,-0.1337713748216629,-0.020114406943321228,-0.009103844873607159,0.2613998353481293,-0.004802152514457703,-0.05041815713047981,0.12069719284772873,0.29099005460739136,-0.10032617300748825,-0.05914101004600525,-0.0416063629090786],[0.17273937165737152,0.09550438076257706,-0.2166234701871872,-0.20503036677837372,-0.2022695243358612,-0.10430300980806351,-0.04485684633255005,0.020321527495980263,0.4539908170700073,-0.2157498300075531,-0.07535970956087112,-0.039321236312389374,-0.08422242850065231,-0.0416591539978981,0.009144962765276432,0.9191579818725586,0.5990180373191833,-0.052470408380031586,-0.10907544195652008,-0.22494494915008545,-0.3768812119960785,-0.3027074635028839,0.1048031896352768,0.7398855090141296,-0.01470530778169632,0.20566126704216003,0.12060714513063431,-0.1386498510837555,-0.2658388614654541,-0.002002269495278597,-0.025669505819678307,0.28987500071525574,0.5983523726463318,0.2504976987838745,-0.24992723762989044,-0.16152119636535645,0.004640254192054272,-0.1892612725496292,-0.16429291665554047,0.14747701585292816,0.3864345848560333,0.18735404312610626,-0.3284236192703247,-0.24932776391506195,-0.11323568969964981,0.1602218747138977,-0.11602762341499329,0.14885784685611725,-0.447330504655838,-0.38916581869125366,-0.20321783423423767,-0.37235045433044434,-0.1923781931400299,-0.1073884665966034,-0.02266523241996765,0.14981025457382202],[0.080174520611763,-0.2673928141593933,-0.3104243576526642,-0.44184520840644836,-0.47241997718811035,-0.5071842670440674,-0.14585186541080475,-0.22058697044849396,-0.5539388656616211,0.029255101457238197,0.09186457097530365,0.23668982088565826,0.0864122286438942,-0.1087159812450409,0.3210490643978119,0.200367271900177,-0.39179420471191406,-0.0463532917201519,0.11729040741920471,0.1895935833454132,0.03785928338766098,-0.30555620789527893,0.3949592411518097,0.5782811641693115,0.09291578829288483,0.1005629301071167,-0.009441256523132324,0.3457796275615692,0.47132131457328796,0.21875286102294922,0.40998250246047974,0.07282160222530365,0.27431726455688477,0.3868566155433655,-0.040989723056554794,-0.05757735297083855,0.3032657206058502,-0.19748659431934357,0.17674876749515533,-0.06984759122133255,0.474773645401001,0.30667629837989807,0.027679381892085075,0.3367091715335846,0.27412497997283936,0.03490404039621353,0.060950372368097305,-0.035122014582157135,-0.3020607829093933,-0.37430134415626526,-0.02900819107890129,-0.08697979897260666,0.10601218789815903,0.12278416752815247,0.1846286803483963,0.4842642545700073],[-0.19290637969970703,0.013806444592773914,0.11984112858772278,0.07323529571294785,0.4322825074195862,0.16236288845539093,0.2531472146511078,0.0014553526416420937,0.13192486763000488,0.39385920763015747,0.055241990834474564,-0.06143459305167198,0.21746298670768738,0.1800469011068344,-0.4121341109275818,-1.2680879831314087,-0.25903117656707764,-0.06281451135873795,-0.10568881034851074,0.24632593989372253,0.2104630023241043,0.33648157119750977,-0.43013012409210205,-1.5278280973434448,-0.3228257894515991,-0.6651221513748169,-0.510982871055603,-0.39132964611053467,-0.05724339559674263,-0.1983092576265335,-0.47110462188720703,-0.01683851145207882,0.45253267884254456,0.3022119700908661,0.12927386164665222,0.4839382469654083,0.09693565219640732,-0.09811899811029434,-0.1288014054298401,-0.36674800515174866,0.49096083641052246,0.44549664855003357,0.28864148259162903,0.24863606691360474,0.2678375840187073,-0.16996635496616364,-0.24744512140750885,-0.07917588204145432,0.40414565801620483,0.3150835931301117,0.15136827528476715,0.22806666791439056,0.3245750367641449,0.25909411907196045,0.30339178442955017,-0.07760591059923172],[0.09407438337802887,0.13321994245052338,0.15297867357730865,0.04444795474410057,0.13307930529117584,0.1832440197467804,-0.021454086527228355,0.10702434927225113,-0.32982364296913147,-0.38387900590896606,0.014222702942788601,0.05305957421660423,-0.11970218271017075,-0.11365658044815063,0.09970937669277191,0.039225023239851,-0.061993300914764404,-0.030974946916103363,0.08438576012849808,-0.0936616063117981,0.1274641901254654,-0.3714520037174225,0.0017036811914294958,0.21372652053833008,0.01136981975287199,0.29160335659980774,0.39671841263771057,0.14938315749168396,0.14216864109039307,-0.0967216044664383,0.17907676100730896,0.27258574962615967,-0.6205218434333801,-0.09009086340665817,-0.19532684981822968,-0.1673983782529831,0.12995031476020813,-0.1621772050857544,0.1914074718952179,0.12073244899511337,-0.9603816270828247,-0.32344475388526917,-0.2835870087146759,-0.07610747218132019,-0.18130971491336823,0.12050951272249222,0.39394626021385193,-0.0005193995893932879,-0.30590909719467163,-0.218824565410614,-0.043723005801439285,0.018917495384812355,-0.34043169021606445,-0.07610005885362625,-0.08598902821540833,-0.03904927149415016],[-0.05108539015054703,-0.36527347564697266,-0.03213227167725563,-0.24429142475128174,0.03827387094497681,-0.23879829049110413,-0.13367091119289398,-0.2370191067457199,-0.02977311983704567,0.46934568881988525,0.11071328818798065,0.2608907222747803,0.19531241059303284,-0.15038827061653137,0.23145532608032227,-0.33208709955215454,-0.5996602177619934,-0.0591416172683239,-0.14207756519317627,-0.04789556562900543,0.1017719954252243,0.045281920582056046,0.08811965584754944,-0.4279401898384094,-0.07342009991407394,-0.13079306483268738,-0.13175563514232635,0.33261415362358093,0.5799346566200256,0.18815761804580688,-0.05974190682172775,-0.20554523169994354,-0.010721156373620033,0.11873957514762878,0.31076958775520325,0.17663823068141937,0.2756480276584625,0.1765085756778717,-0.05262156203389168,-0.11464796215295792,-0.15751329064369202,0.44130778312683105,0.1367272287607193,-0.07602055370807648,0.2678726017475128,-0.009076474234461784,-0.07340994477272034,-0.27616116404533386,-0.06367956846952438,0.09366028755903244,0.04072132706642151,0.08410491049289703,0.13965515792369843,-0.11391222476959229,-0.015981098636984825,0.2871069610118866],[-0.11545293033123016,-0.29937824606895447,0.008594383485615253,0.16464465856552124,0.22452640533447266,-0.08940277993679047,-0.16312021017074585,-0.1168883740901947,-0.7098254561424255,-0.1057760939002037,-0.17572546005249023,0.22916319966316223,0.04078684002161026,0.18812838196754456,-0.19852808117866516,-0.18608517944812775,-0.7344350814819336,-0.03919542208313942,0.17677666246891022,0.17100757360458374,0.1946624517440796,-0.10571062564849854,-0.010395828634500504,-0.009304285049438477,-0.06399635970592499,-0.26871418952941895,-0.5687401294708252,-0.18457752466201782,-0.23972462117671967,-0.3748212456703186,-0.04852538928389549,-0.21693333983421326,0.5109273791313171,0.26031580567359924,-0.22078338265419006,-0.2282642275094986,0.322714239358902,0.13123764097690582,0.016218796372413635,-0.20724287629127502,0.4148246645927429,0.04608159512281418,-0.2833015024662018,0.1397194117307663,0.3041645288467407,-0.07317383587360382,-0.2261277288198471,0.007856190204620361,-0.05637570098042488,0.08423493057489395,0.47892722487449646,0.5741629004478455,0.43779459595680237,0.24327903985977173,0.24367675185203552,0.07051756978034973],[0.12096314132213593,0.001333351363427937,0.4592243432998657,0.30893614888191223,0.5056903958320618,0.5096175074577332,0.18798823654651642,-0.11916855722665787,-0.3689708411693573,-0.33957839012145996,-0.19329474866390228,-0.004911145661026239,-0.061445921659469604,-0.1963810920715332,-0.09040449559688568,-0.45605629682540894,-0.08627341687679291,-0.028930677101016045,-0.1234697550535202,0.06387306749820709,-0.1790735125541687,-0.2775183916091919,-0.061863888055086136,-0.2564068138599396,-0.21669480204582214,0.2511308491230011,0.4118536710739136,0.26358529925346375,-0.09440521150827408,0.13134728372097015,0.2639487087726593,-0.005782489664852619,-1.1580108404159546,-0.2191791534423828,-0.38669854402542114,-0.4529123604297638,-0.16740785539150238,-0.08728955686092377,0.38286471366882324,0.09538447111845016,-1.4021512269973755,-0.6885183453559875,-0.2839338183403015,-0.01631752774119377,-0.17966654896736145,0.09081699699163437,0.1824948936700821,0.12542247772216797,-0.3670963943004608,-0.029821334406733513,0.11525250971317291,0.007408208679407835,-0.042276643216609955,-0.07381196320056915,-0.11988265067338943,-0.10152098536491394],[0.18064512312412262,-0.027927355840802193,0.1235257238149643,-0.028263414278626442,-0.20916026830673218,-0.05049916356801987,-0.1051587164402008,0.3526093363761902,1.2742172479629517,0.1340891718864441,0.024471452459692955,0.0014680150197818875,-0.1368046998977661,0.03247770667076111,-0.3991474211215973,-0.9139624238014221,1.3927637338638306,0.2638561725616455,-0.06479710340499878,0.08589430898427963,-0.03982513025403023,-0.11779538542032242,-0.42376628518104553,-0.7921202182769775,0.17869673669338226,0.3319607377052307,0.05774280056357384,0.005016727838665247,-0.019235597923398018,-0.1388763040304184,-0.09159991890192032,0.2705986499786377,-0.20435743033885956,-0.17806322872638702,-0.32149097323417664,-0.1559874266386032,0.09289561957120895,-0.16428375244140625,0.13398195803165436,0.3515252470970154,0.03594717010855675,-0.06830066442489624,-0.062240201979875565,-0.13862738013267517,-0.1605321764945984,0.05145509913563728,0.33862751722335815,0.04255396127700806,0.03432207554578781,-0.3805180490016937,-0.0034828917123377323,-0.0914469063282013,-0.34917423129081726,-0.2785053551197052,0.05153051018714905,0.05060333386063576],[-0.08587740361690521,0.18426074087619781,0.18942569196224213,0.3364610970020294,0.4994787871837616,0.2289840579032898,0.045734703540802,-0.09143068641424179,0.5035598874092102,-0.13143622875213623,0.18578670918941498,0.09371629357337952,-0.1357150673866272,0.10734277963638306,-0.009400497190654278,0.09953689575195312,0.7749936580657959,0.024216458201408386,0.05521802976727486,-0.012956375256180763,0.051689308136701584,0.13762782514095306,0.1736736297607422,0.10408029705286026,-0.2834705412387848,0.14168858528137207,0.28551357984542847,0.13672177493572235,0.22858962416648865,0.2884698808193207,-0.02477312833070755,-0.14850273728370667,-0.48899197578430176,0.04990318790078163,0.08451217412948608,0.06532410532236099,-0.05036555230617523,0.14366887509822845,0.30488699674606323,-0.08321592956781387,-0.47970762848854065,0.1861572116613388,0.29155462980270386,-0.07999448478221893,-0.11007276922464371,-0.11914218962192535,0.11275876313447952,-0.3386171758174896,-0.03223798796534538,-0.07499667257070541,-0.24068798124790192,-0.44803479313850403,-0.2536553740501404,-0.5327455401420593,-0.3572188913822174,-0.34433287382125854],[0.18931137025356293,-0.024768570438027382,-0.43810105323791504,-0.31515538692474365,-0.583565890789032,-0.24751240015029907,-0.0496148020029068,0.23658917844295502,-0.7088824510574341,-0.05485806241631508,-0.11220568418502808,-0.22266285121440887,-0.35565292835235596,0.025364335626363754,-0.28718146681785583,-0.5584931969642639,-0.20232893526554108,0.4331459701061249,-0.13152211904525757,-0.10023236274719238,-0.3089839816093445,-0.060079410672187805,-0.31013625860214233,-0.6440291404724121,0.21853673458099365,0.5088590383529663,0.3986195921897888,0.10328105837106705,0.12434633076190948,0.42036789655685425,0.09845391660928726,0.3729787766933441,0.6951952576637268,0.20852431654930115,0.13373495638370514,0.1267760545015335,-0.25913676619529724,0.008277705870568752,0.15333697199821472,0.10037913173437119,0.36756432056427,0.31954431533813477,0.00052074616542086,-0.22947026789188385,-0.27463221549987793,0.17402656376361847,-0.07012000679969788,0.13309118151664734,0.5500223636627197,0.3095690608024597,0.194947749376297,0.18217182159423828,-0.0023791068233549595,0.12463802844285965,0.00016005421639420092,-0.12993010878562927],[0.09007257968187332,-0.2567163109779358,-0.48712244629859924,-0.6169114708900452,-0.7328577637672424,-0.9453704953193665,-0.4754188656806946,0.055510975420475006,0.0546158142387867,0.11334887146949768,0.08530289679765701,0.2207748144865036,0.0999932810664177,0.02443636581301689,0.12341523915529251,0.21938610076904297,-0.11719203740358353,0.19792838394641876,0.16916242241859436,0.16688470542430878,0.24753065407276154,0.1948201060295105,0.14256645739078522,0.2569005489349365,-0.14178474247455597,0.06528116762638092,0.16283780336380005,0.22190319001674652,0.11487853527069092,0.23284050822257996,0.19640275835990906,-0.07555453479290009,0.06449095904827118,-0.14233620464801788,0.16342930495738983,0.3598553538322449,0.042402639985084534,-0.18851223587989807,0.17719504237174988,-0.02751667983829975,-0.16417357325553894,0.02612348273396492,0.19424229860305786,0.3303813338279724,0.25694555044174194,0.19085000455379486,0.058792177587747574,0.13589522242546082,-0.07295443117618561,0.007045071106404066,-0.35578376054763794,-0.15884234011173248,-0.1998465657234192,-0.2083461880683899,-0.2223736196756363,0.25732478499412537],[0.061806876212358475,-0.12762431800365448,-0.007700720801949501,0.09724391251802444,0.20046435296535492,-0.2948857247829437,-0.1817922592163086,-0.2798171043395996,-0.1080174371600151,-0.23091335594654083,-0.07191263884305954,0.07095765322446823,0.33386850357055664,0.01343628205358982,-0.06388901174068451,-0.11132027208805084,-0.3458171486854553,0.09092079848051071,-0.18309223651885986,0.23976846039295197,0.4568355083465576,-0.03213018923997879,-0.04733896255493164,-0.12074693292379379,0.04482058063149452,-0.6127784252166748,-0.5285937190055847,0.029174575582146645,-0.16601784527301788,-0.385038286447525,-0.4152563512325287,0.042449165135622025,0.4413716197013855,0.22418881952762604,0.04710479825735092,-0.09839966148138046,0.4757261276245117,-0.11823903024196625,0.03780119866132736,-0.22645413875579834,0.41100677847862244,0.16545969247817993,0.007863328792154789,0.1371161788702011,0.30445387959480286,-0.1730000078678131,-0.0022122622467577457,-0.12770047783851624,-0.274050235748291,0.030628658831119537,0.18675902485847473,0.242262065410614,0.22299280762672424,0.15833862125873566,0.2567121386528015,-0.03226562961935997],[0.21684423089027405,-0.14215704798698425,-1.0345218181610107,-0.8787018656730652,-0.9268538951873779,-1.0577956438064575,-0.3557323217391968,0.2757450044155121,-0.47754451632499695,0.3770115077495575,0.16359536349773407,0.22311268746852875,0.2690780460834503,-0.03978356719017029,-0.26564738154411316,-0.5984134674072266,-0.7576034665107727,0.5988340377807617,0.13115893304347992,0.17832040786743164,0.04747467488050461,0.17180903255939484,-0.0951259583234787,-0.6341829299926758,0.2461865097284317,0.17612238228321075,0.2275400012731552,0.4185519218444824,0.5934939980506897,0.3730098307132721,0.15117529034614563,0.29825887084007263,0.9563408493995667,0.2543758749961853,0.004355153068900108,-0.07897593826055527,0.32590925693511963,-0.0713227391242981,0.09610062837600708,0.41446661949157715,0.6833187937736511,0.03125642240047455,-0.02977582812309265,0.01637985184788704,0.08136292546987534,-0.09347480535507202,-0.04547509551048279,0.26763203740119934,0.3056165277957916,0.06092063710093498,0.14439985156059265,0.19107569754123688,0.268335223197937,0.263417512178421,0.14611130952835083,0.47091618180274963],[-0.12042383849620819,-0.2990877330303192,-0.3647976219654083,-0.6075522899627686,-0.39364925026893616,-0.7883368134498596,-0.06660199165344238,0.038226138800382614,0.507529616355896,0.4442340135574341,-0.19442278146743774,0.23953092098236084,0.20845873653888702,0.05763876438140869,0.4384308457374573,0.5927338004112244,0.1622268110513687,0.15129104256629944,0.15932120382785797,-0.02809542790055275,0.33128392696380615,0.18854288756847382,0.3588253855705261,0.37224718928337097,-0.2192472517490387,-0.15873825550079346,-0.0455813854932785,-0.06738182157278061,0.5715674757957458,0.2590372562408447,-0.18516936898231506,-0.0117191756144166,0.21869419515132904,-0.028310520574450493,0.11508984118700027,0.4069155752658844,0.2288554608821869,0.05833934247493744,-0.1915004700422287,-0.2358958125114441,-0.11792532354593277,0.44185587763786316,0.22291964292526245,0.130349799990654,0.17953696846961975,0.16479691863059998,-0.22725890576839447,-0.325064092874527,-0.19743843376636505,0.066140316426754,-0.3964032232761383,-0.17405851185321808,-0.15601465106010437,-0.31386247277259827,-0.1680857241153717,0.07629569619894028],[-0.3367297053337097,-0.17795735597610474,0.1993030607700348,0.12714704871177673,-0.05390134081244469,0.08125273138284683,-0.07927698642015457,-0.21607711911201477,0.09945441037416458,0.18828991055488586,-0.08539872616529465,-0.13391004502773285,-0.1908251941204071,-0.12166747450828552,0.3103081285953522,0.09225597977638245,0.07192689180374146,0.053704239428043365,-0.1786622852087021,0.022637607529759407,-0.278493195772171,0.08284635096788406,0.19792212545871735,0.014658334665000439,-0.05560080707073212,0.19539393484592438,0.06322307884693146,0.046402156352996826,0.09461518377065659,0.33926457166671753,-0.06216638907790184,-0.09397256374359131,1.1344939470291138,0.30819958448410034,-0.13604094088077545,0.13333216309547424,-0.23153358697891235,0.146541565656662,-0.15740692615509033,-0.20711953938007355,1.259498119354248,0.38578882813453674,0.027010900899767876,-0.25348228216171265,-0.31472253799438477,-0.05532721430063248,-0.35012227296829224,-0.3504542410373688,-0.2448112517595291,0.11338119208812714,0.07027319818735123,-0.2857905924320221,-0.3523232638835907,0.017668340355157852,0.018209028989076614,0.06853509694337845],[-0.2281239628791809,-0.16821227967739105,-0.1190609559416771,0.1416187435388565,0.04375914856791496,-0.022859307006001472,0.058908022940158844,0.056734226644039154,0.1562829315662384,-0.2348092496395111,0.1846383661031723,-0.13748560845851898,-0.35523274540901184,-0.0017163179581984878,0.5044910311698914,1.3574734926223755,-0.10587935149669647,-0.020955931395292282,0.09095644950866699,0.09427376091480255,-0.27557849884033203,0.1088276207447052,0.5181629061698914,1.4983832836151123,-0.16973407566547394,0.1173432320356369,0.2071559727191925,0.2686282694339752,-0.0373341403901577,0.26894453167915344,0.044699087738990784,0.11941635608673096,0.18430443108081818,0.08108261972665787,-0.01923210173845291,-0.07701698690652847,-0.09862816333770752,0.1572754830121994,-0.06143223121762276,-0.223174050450325,-0.09136509895324707,0.016764497384428978,0.051623180508613586,-0.11866318434476852,-0.10249137133359909,-0.013517306186258793,0.021723415702581406,-0.16579878330230713,-0.3197472095489502,-0.33172449469566345,-0.352870911359787,-0.212479829788208,-0.2793301045894623,-0.08955008536577225,0.10189227014780045,-0.10077337175607681],[0.025319576263427734,0.0487835593521595,-0.1301324963569641,0.020861206576228142,0.2198668122291565,0.07325510680675507,-0.19422967731952667,0.18736456334590912,-1.301788091659546,0.2264290302991867,-0.07396164536476135,0.12452807277441025,0.22875306010246277,-0.1728515475988388,-0.024204475805163383,-0.18711499869823456,-1.2029818296432495,0.0025406498461961746,0.13367429375648499,0.04061073064804077,0.25667163729667664,-0.09003524482250214,-0.1639620065689087,-0.4442514479160309,0.03595680370926857,0.20514081418514252,-0.12347264587879181,0.2570987939834595,0.24326147139072418,0.02974596992135048,-0.01940581016242504,-0.10385819524526596,-0.7664152383804321,-0.27892106771469116,0.0468408577144146,0.4004051685333252,0.3346130847930908,0.10395649075508118,0.1722697913646698,-0.1610923707485199,-0.6709871292114258,-0.09420312941074371,0.253584086894989,0.17381328344345093,0.3004683256149292,0.020480992272496223,0.16266167163848877,-0.11564768105745316,0.2007707804441452,0.1887340396642685,0.054958343505859375,0.2710306942462921,0.5250683426856995,0.3253776729106903,-0.03689945489168167,-0.05792349576950073],[0.08417351543903351,-0.004078150726854801,-0.25118038058280945,-0.25118425488471985,0.024438386783003807,-0.23724406957626343,-0.11810769885778427,-0.01865847036242485,-0.26130208373069763,0.10529879480600357,0.060252923518419266,-0.09781567007303238,-0.08910876512527466,-0.1472928375005722,-0.09421481192111969,-0.03271723911166191,-0.03887926787137985,0.011126470752060413,-0.005069935228675604,-0.08425537496805191,0.16065409779548645,0.08571499586105347,-0.03420840576291084,0.031407441943883896,0.041382886469364166,-0.07479109615087509,-0.0999893918633461,0.179848775267601,-0.021579472348093987,-0.11717768758535385,0.07372838258743286,-0.10101179778575897,-0.411451518535614,-0.12707887589931488,-0.17936959862709045,-0.16961951553821564,0.019199563190340996,-0.01611756719648838,-0.10574229806661606,-0.03927936777472496,-0.031367652118206024,-0.19195868074893951,-0.0056850844994187355,-0.050232138484716415,-0.029042815789580345,-0.03729069232940674,0.10320872813463211,-0.11185988783836365,-0.12357310205698013,-0.09608826786279678,0.06020558625459671,0.26224491000175476,0.2665614187717438,-0.14086590707302094,0.04919563978910446,0.05804942920804024],[-0.2282603234052658,0.016916995868086815,0.3878434896469116,0.4923897981643677,0.1564130038022995,0.5665498971939087,0.07502655684947968,-0.030405135825276375,0.5316969752311707,0.05092903599143028,-0.14490915834903717,-0.30001479387283325,-0.406910240650177,0.12187520414590836,0.29693660140037537,0.2088223546743393,0.3596797585487366,-0.13429385423660278,0.17493616044521332,-0.16309422254562378,-0.25392696261405945,-0.25887560844421387,0.10268954187631607,0.24842999875545502,-0.30680933594703674,-0.23521055281162262,-0.18776638805866241,-0.13474668562412262,-0.29045867919921875,-0.13139474391937256,-0.22380703687667847,-0.3589456081390381,-0.8585448265075684,-0.17969131469726562,0.1270086020231247,-0.19144198298454285,-0.14871355891227722,-0.18145018815994263,-0.012418201193213463,-0.20919428765773773,-0.7576520442962646,-0.23005682229995728,-0.05625787749886513,-0.14795373380184174,-0.08709563314914703,-0.10590994358062744,0.012758821249008179,-0.0724770650267601,-0.3528177738189697,0.031021321192383766,0.21947646141052246,0.08905040472745895,-0.22777536511421204,0.14704209566116333,0.2694067656993866,0.23007343709468842],[-0.039068300276994705,0.2403312474489212,-0.03539744019508362,0.2955070436000824,0.2513948976993561,-0.18094982206821442,0.05150600150227547,-0.0735887810587883,-0.2543827295303345,-0.09597296267747879,-0.029469115659594536,0.3321925699710846,0.05049753561615944,-0.016673969104886055,0.3000793755054474,-0.1594415307044983,-0.26368948817253113,-0.042642366141080856,-0.05451288819313049,0.3029141426086426,0.3670085072517395,0.21989011764526367,0.26166829466819763,-0.3129786252975464,-0.10165708512067795,-0.28909292817115784,-0.17037759721279144,-0.17736664414405823,0.11613377183675766,0.0956774353981018,-0.0964922085404396,-0.1207524910569191,-0.21743956208229065,-0.26952576637268066,0.28662437200546265,0.11358227580785751,0.22435656189918518,0.05353574454784393,0.04353953152894974,-0.029150202870368958,-0.46151673793792725,-0.03367156162858009,0.09452686458826065,0.02257234789431095,0.21398678421974182,0.0232399869710207,-0.0602375827729702,-0.18898797035217285,0.01095022913068533,-0.051841236650943756,-0.20059734582901,0.22158648073673248,0.22337086498737335,-0.07032695412635803,-0.06850282102823257,-0.07888754457235336],[0.32790225744247437,-0.0073408582247793674,-0.39171072840690613,-0.09121479839086533,-0.2903204560279846,-0.5248167514801025,-0.011592946946620941,0.24855230748653412,-0.1926243156194687,0.32756268978118896,-0.09913649410009384,0.22398845851421356,0.29980534315109253,-0.06607458740472794,-0.3091515898704529,-0.5951923727989197,-0.44140031933784485,0.28867700695991516,0.1175704374909401,-0.01844917982816696,0.2237502932548523,-0.11451799422502518,-0.13591368496418,-0.6617075204849243,0.249068483710289,0.030131716281175613,0.1775226891040802,0.24231617152690887,0.36794912815093994,-0.10293994843959808,0.25423040986061096,-0.10899185389280319,-0.26802679896354675,0.00840823259204626,-0.12011716514825821,-0.030517583712935448,0.1850828379392624,0.0655139833688736,0.210750013589859,0.06587082892656326,-0.41025951504707336,-0.17300307750701904,-0.06811194866895676,0.10083600133657455,0.3399796783924103,-0.11101356148719788,-0.016931552439928055,-0.1214318796992302,0.09269125014543533,0.00039761446532793343,0.15973396599292755,0.20617389678955078,0.1684398353099823,0.002976933028548956,0.05485102906823158,0.08468907326459885],[0.2170826643705368,0.03818449005484581,-0.07856719195842743,-0.11679434776306152,-0.2001686692237854,-0.10617628693580627,-0.3509352207183838,0.09553594887256622,0.47589901089668274,0.07296553999185562,0.18508459627628326,0.1154501885175705,0.28339606523513794,0.0208031814545393,-0.22106590867042542,-0.5704830288887024,0.8899732232093811,0.1989193558692932,0.15662629902362823,-0.022013524547219276,0.23224927484989166,0.06467285752296448,-0.1796460747718811,-0.21949292719364166,-0.020714374259114265,0.19389666616916656,0.35276246070861816,0.3576541543006897,0.1909448355436325,0.12959745526313782,0.18825899064540863,-0.012776743620634079,-0.959078848361969,-0.0960451290011406,-0.22473032772541046,0.057077229022979736,0.11925336718559265,-0.10289765894412994,0.32836830615997314,0.1754002869129181,-0.9116570949554443,-0.18497812747955322,-0.0008910849574021995,0.33191853761672974,0.039364032447338104,-0.14897532761096954,0.221757709980011,-0.09239394962787628,-0.06763345003128052,-0.4447990357875824,-0.12577809393405914,-0.18908515572547913,-0.3760609030723572,-0.28345826268196106,-0.029865629971027374,0.23205149173736572],[0.24582891166210175,0.21122640371322632,0.6624433398246765,0.5061559081077576,0.4119880795478821,0.5469356775283813,0.005100563634186983,-0.23482872545719147,0.9002082347869873,-0.4154355823993683,-0.07506560534238815,0.2570107579231262,0.0942520797252655,0.05826107785105705,0.14099463820457458,0.6126961708068848,1.2485861778259277,-0.0683576837182045,0.17518863081932068,0.1633739322423935,0.3516096770763397,0.06923511624336243,0.11699187010526657,0.4862871468067169,-0.24598157405853271,-0.31546369194984436,-0.24731925129890442,-0.5241631269454956,-0.21404613554477692,-0.5684099197387695,-0.6413530707359314,-0.020503565669059753,-0.9665456414222717,-0.4098283648490906,-0.069889135658741,0.052195727825164795,0.09818190336227417,-0.1643873155117035,0.14325767755508423,-0.07399558275938034,-0.8939386010169983,-0.4987083077430725,0.17297060787677765,0.05737946182489395,0.14709186553955078,0.08712401241064072,-0.04286431148648262,0.03401888906955719,-0.04454938694834709,-0.16421906650066376,-0.5352744460105896,-0.47303739190101624,-0.2740651071071625,-0.3074437975883484,-0.30238261818885803,-0.07064516842365265],[0.10052267462015152,0.13261152803897858,0.1389143168926239,-0.045995328575372696,0.16777965426445007,-0.04909094423055649,0.1591324359178543,0.07503070682287216,-0.8153784275054932,-0.07217346876859665,-0.0787033960223198,0.2104669213294983,0.22489683330059052,0.09645956009626389,-0.044095803052186966,-0.2659947872161865,-0.5519493222236633,0.04844384640455246,-0.14279110729694366,0.14085054397583008,-0.07472642511129379,0.08636465668678284,0.04122200608253479,-0.43795686960220337,-0.04786168783903122,-0.14644941687583923,-0.3106503486633301,-0.17954038083553314,-0.22880730032920837,-0.273011714220047,-0.3646581172943115,0.22689445316791534,0.2866257131099701,-0.19448308646678925,0.17333395779132843,0.17659883201122284,0.17288531363010406,0.050926875323057175,-0.16510307788848877,0.17462711036205292,0.21455219388008118,0.16154350340366364,0.24673637747764587,0.06689988076686859,0.20021794736385345,0.02121957764029503,-0.013703488744795322,0.07799658179283142,0.47537702322006226,0.29619738459587097,0.1575303077697754,0.1773354560136795,0.15957331657409668,0.08775229007005692,0.02599373459815979,-0.09062975645065308],[0.25863030552864075,0.19600163400173187,-0.21917973458766937,0.09911353886127472,-0.16620498895645142,-0.12660299241542816,-0.06520172953605652,0.2208196073770523,-0.6965223550796509,-0.11332277208566666,0.12549172341823578,0.1980423778295517,0.029341313987970352,-0.09428998082876205,0.3623093068599701,1.2039095163345337,-0.22706648707389832,-0.08034098893404007,-0.08692974597215652,0.11323109269142151,-0.025626184418797493,-0.10996868461370468,0.2822054326534271,1.1419705152511597,0.18799413740634918,0.2718082368373871,0.16695421934127808,0.1658598929643631,-0.06655382364988327,-0.15522533655166626,0.04969218745827675,0.2626171112060547,-0.2719130218029022,-0.10784104466438293,-0.04675297066569328,0.18945685029029846,-0.059832099825143814,-0.16186963021755219,0.1370750516653061,-0.001103610615245998,-0.17959611117839813,-0.22779305279254913,0.08135760575532913,-0.015987196937203407,0.04838262498378754,-0.0040916879661381245,-0.037228357046842575,-0.000390210043406114,-0.11819641292095184,-0.2133546620607376,0.00019539601635187864,-0.24345585703849792,-0.3204802870750427,-0.1432199776172638,-0.09718740731477737,0.02796991914510727]],"biases":[-0.25716879963874817,-0.09606895595788956,0.3433239161968231,-0.2588852047920227,0.15825562179088593,0.4916759133338928,-0.1379641741514206,0.4196358621120453,0.34262171387672424,-0.47957903146743774,0.028225185349583626,-0.2845837473869324,-0.22006021440029144,0.36131155490875244,0.33908262848854065,0.45933929085731506,0.44206273555755615,-0.11320479959249496,-0.06335899233818054,0.25146934390068054,0.01718321442604065,-0.18439042568206787,0.09947983175516129,0.14955227077007294,0.20623134076595306,0.12400515377521515,0.19450245797634125,-0.046672843396663666]},{"weights":[[0.01911749504506588,-0.15640859305858612,0.8241621851921082,0.46962085366249084,-0.8609685301780701,0.2074088752269745,-0.6396166682243347,-0.7823152542114258,0.47626054286956787,-0.8281381130218506,0.15393663942813873,-0.8462256193161011,-0.39841005206108093,-0.5403630137443542,0.38698476552963257,-0.830191969871521,-0.5610414743423462,-0.11063451319932938,-0.25915226340293884,-0.7962090373039246,-0.03947906196117401,0.2325330674648285,-0.371379017829895,-0.771104633808136,-1.0093578100204468,0.8255411982536316,0.411899209022522,-0.18572482466697693],[-0.6668030023574829,-0.5280482172966003,0.8011398911476135,-1.130866289138794,0.06229816749691963,0.4996905028820038,-0.694847822189331,0.7163668274879456,0.6109403371810913,-0.6503398418426514,-0.602238118648529,-0.5508274435997009,-1.1745831966400146,0.3243468701839447,1.218153715133667,0.18066811561584473,0.2718890309333801,-1.0998233556747437,-1.143193244934082,1.0599924325942993,0.24762950837612152,-1.2332923412322998,0.7001368999481201,0.39991050958633423,-0.04696104675531387,0.12018628418445587,-0.1752418577671051,-0.4381314814090729],[-0.19984951615333557,-0.29206693172454834,-0.4939926564693451,-0.008725522086024284,0.5903074741363525,0.028097277507185936,-0.8415144681930542,0.5774331092834473,0.818388044834137,-0.5757074356079102,-1.3272862434387207,-0.6086605191230774,-0.767160177230835,-0.28903934359550476,0.3882910907268524,-0.3629840314388275,0.2550521790981293,0.8439859747886658,0.3994605243206024,-0.4267123341560364,0.009433628059923649,0.303940087556839,-0.3419080376625061,-0.5414393544197083,-1.0624979734420776,-1.1180236339569092,-0.5107778310775757,-0.5067789554595947],[-0.2677325904369354,-1.252701759338379,-0.7160792946815491,-0.4657190442085266,0.09457080066204071,-1.0446404218673706,0.6784154176712036,-0.22056111693382263,0.2780386209487915,0.9069663882255554,-2.015838384628296,-0.7593804597854614,0.28317075967788696,-0.49934121966362,-0.36914438009262085,-0.23360863327980042,-1.143506407737732,-0.634949803352356,0.3208251893520355,1.4380565881729126,0.12062434107065201,-0.07558086514472961,0.007974468171596527,-0.12601278722286224,-0.9348442554473877,-0.9303343296051025,0.38232678174972534,0.9697055816650391],[-2.313948154449463,-0.8091888427734375,-0.29109713435173035,-0.035867296159267426,0.5828779339790344,-1.0318797826766968,-0.2321084886789322,0.12221270054578781,-0.6986654996871948,-0.686510443687439,0.12084905803203583,-0.5508285164833069,-0.08260469138622284,1.5319851636886597,-0.3177742063999176,0.9121435284614563,1.256953477859497,-0.5807052850723267,0.14764279127120972,-0.3205944001674652,0.21781469881534576,-0.5700650215148926,-0.4695763885974884,-0.08203994482755661,0.6997597813606262,-0.24527044594287872,-0.9580277800559998,0.2962523102760315],[-0.06923547387123108,0.5818553566932678,-0.7388921976089478,-1.1951824426651,-1.1651984453201294,0.0259108804166317,0.15641330182552338,-0.10427172482013702,-0.5742722153663635,1.272379994392395,0.8346365094184875,-0.21315917372703552,0.3060216009616852,-0.4416264295578003,-0.809319019317627,-0.12105648219585419,-0.9211002588272095,-1.3075295686721802,-1.6462211608886719,0.47901928424835205,0.16630607843399048,0.4907665550708771,-0.027108917012810707,0.5851773619651794,0.6431281566619873,-0.28551775217056274,-0.2582433521747589,-1.2778944969177246],[0.20737622678279877,-0.6541568040847778,0.5652628540992737,-0.3634103834629059,-0.5443909764289856,1.3157007694244385,-0.7853565216064453,-0.06699298322200775,-0.009810838848352432,-0.5558413863182068,1.0790518522262573,-0.6002654433250427,0.9637919664382935,-0.6099287867546082,-0.2612449526786804,0.7722837924957275,-0.9019847512245178,0.6500495672225952,-1.6921706199645996,-0.740028440952301,-0.370318740606308,-1.0518492460250854,-0.5967578887939453,-0.0764249637722969,-0.542111873626709,-1.4638222455978394,0.046664897352457047,-1.692918062210083],[-0.05194287747144699,0.2698974311351776,-0.4132063388824463,-0.8544812798500061,-0.9657890200614929,0.6115161776542664,-0.8676618933677673,0.4745761752128601,-0.9452508091926575,-0.8734022378921509,-0.8896642327308655,0.6817599534988403,-0.4536800682544708,-0.12426494061946869,-0.35940641164779663,-0.9395175576210022,0.6991588473320007,0.1850145012140274,-0.09907933324575424,0.015610682778060436,-0.3931693434715271,0.04484247788786888,0.4495792090892792,-0.7417711615562439,-0.5980754494667053,0.6657415628433228,0.0299916323274374,-0.3288908302783966],[0.46425315737724304,-1.4120770692825317,0.008669990114867687,0.7967786192893982,0.10924386978149414,-1.4300121068954468,-0.5348383188247681,-0.7811559438705444,-0.44294384121894836,-1.1507912874221802,-0.1656174510717392,-0.3311995267868042,1.048702359199524,-0.293463796377182,-0.7470353841781616,0.8357524275779724,-0.39298364520072937,0.9288393259048462,0.6058921813964844,-0.8900843262672424,-0.35459476709365845,-0.7406607270240784,-0.6344439387321472,-0.5898726582527161,-1.073287844657898,-1.2384541034698486,-0.20039305090904236,0.2827645242214203],[0.6977537870407104,1.0065908432006836,-1.1346004009246826,0.6424345970153809,-1.0079803466796875,-1.9690768718719482,0.6293020248413086,-1.217002034187317,-1.248946189880371,1.093521237373352,0.42751190066337585,0.8375751376152039,-1.1110169887542725,-1.107224464416504,-0.9423390626907349,-2.475461483001709,-1.1285624504089355,-0.5189799666404724,0.7016283273696899,-1.2776885032653809,-0.4602716863155365,0.8334373831748962,-0.5961007475852966,-1.1874028444290161,0.4473244249820709,1.480221152305603,-1.2895811796188354,0.24579116702079773]],"biases":[-0.3601513206958771,-0.46821197867393494,-0.4239729046821594,-0.05670945718884468,-0.5329321026802063,-0.5361405611038208,-0.20637544989585876,-0.4784604012966156,-0.10388532280921936,-0.44948282837867737]}],"inputLookup":null,"inputLookupLength":0,"outputLookup":{"zero":0,"one":1,"two":2,"three":3,"four":4,"five":5,"six":6,"seven":7,"eight":8,"nine":9},"outputLookupLength":10,"options":{"inputSize":0,"outputSize":0,"binaryThresh":0.5},"trainOpts":{"activation":"sigmoid","iterations":20000,"errorThresh":0.005,"log":false,"logPeriod":10,"leakyReluAlpha":0.01,"learningRate":0.3,"momentum":0.1,"callbackPeriod":10,"timeout":"Infinity","beta1":0.9,"beta2":0.999,"epsilon":1e-8}}