{"type":"NeuralNetwork","sizes":[1,10,10,10,10,10,10,10,10,10,10,10,10,10,10,10,1],"layers":[{"weights":[],"biases":[]},{"weights":[[-0.006927699316293001],[-0.08241593837738037],[-0.1466023474931717],[0.12052091211080551],[0.05788847431540489],[-0.07898339629173279],[0.17291101813316345],[-0.1552155613899231],[0.17542806267738342],[-0.14043918251991272]],"biases":[0.03421097621321678,0.0044178138487041,-0.08658779412508011,0.12399549782276154,0.06815062463283539,0.12821711599826813,0.13189633190631866,-0.1094847097992897,0.09079653769731522,-0.05065975710749626]},{"weights":[[0.10150053352117538,-0.13549092411994934,-0.05914808809757233,-0.18080198764801025,0.06783805042505264,0.051865771412849426,0.19887427985668182,-0.055512093007564545,0.14287349581718445,0.032151561230421066],[-0.11022698879241943,0.023874718695878983,0.14351631700992584,-0.11164405941963196,0.05615044757723808,0.18537022173404694,0.15665286779403687,-0.14795760810375214,0.17957168817520142,-0.0902300551533699],[0.048056039959192276,0.045771706849336624,0.04930022358894348,0.11373718827962875,0.1927790492773056,-0.04453333467245102,0.10497595369815826,-0.18706385791301727,0.09292551875114441,0.11921951919794083],[0.09632643312215805,-0.18898971378803253,-0.14605796337127686,-0.1593305468559265,0.16530463099479675,0.04563644900918007,0.04018640145659447,-0.014318826608359814,-0.14458437263965607,-0.12080047279596329],[-0.17206378281116486,0.015438970178365707,-0.0646979883313179,0.11057963967323303,0.06191478669643402,-0.061875954270362854,-0.09929796308279037,-0.1370161473751068,-0.1914278268814087,-0.053234461694955826],[-0.09729675948619843,-0.002285652793943882,0.11371464282274246,-0.1757587045431137,-0.16143356263637543,-0.060157619416713715,0.13713835179805756,0.03279557824134827,0.036606207489967346,-0.18799157440662384],[0.057756196707487106,-0.04279657453298569,0.17158061265945435,-0.05066605284810066,-0.04472599923610687,-0.0068866596557199955,-0.09625404328107834,-0.05867989733815193,-0.14207877218723297,-0.01899704709649086],[0.06283426284790039,0.11247430741786957,0.15006482601165771,0.1052883118391037,-0.13848915696144104,0.13842998445034027,-0.17822222411632538,0.15090404450893402,0.08794862776994705,-0.08607711642980576],[-0.1540808230638504,-0.0037055418360978365,-0.12757781147956848,0.17492398619651794,-0.15991798043251038,-0.0487532801926136,-0.0016476616729050875,0.16131310164928436,-0.19497978687286377,-0.19108515977859497],[-0.11251649260520935,0.1155361607670784,0.14719343185424805,-0.035891078412532806,-0.024138174951076508,0.02930286154150963,0.16294555366039276,-0.07323078066110611,0.06218787655234337,0.18558034300804138]],"biases":[-0.04739772155880928,0.14999507367610931,0.0614965483546257,0.14000657200813293,0.11917122453451157,0.03251674026250839,-0.05122561380267143,0.09956347942352295,0.19356471300125122,0.07773441821336746]},{"weights":[[0.13177067041397095,0.0252408217638731,-0.04807738587260246,-0.07437998801469803,-0.009801803156733513,0.1986946016550064,0.18531067669391632,-0.10069211572408676,0.13549453020095825,0.15698246657848358],[0.0653776004910469,0.07087425887584686,0.14547580480575562,-0.15911658108234406,-0.10666131973266602,0.09252617508172989,-0.19008830189704895,0.030943164601922035,-0.02451797015964985,-0.03944742679595947],[-0.09632042050361633,0.1995672583580017,-0.08670677989721298,-0.04025774821639061,0.10390162467956543,-0.08467364311218262,0.14202634990215302,-0.06786418706178665,0.13844630122184753,-0.04352346062660217],[0.09790420532226562,0.14578214287757874,0.09264082461595535,-0.006255048792809248,-0.06650196760892868,-0.035031113773584366,-0.02216266095638275,-0.03592851385474205,-0.17104043066501617,0.009465789422392845],[-0.048293258994817734,0.18068061769008636,0.10869337618350983,0.19443915784358978,0.1791694015264511,-0.10889643430709839,-0.06253744661808014,0.03219475597143173,0.007322610821574926,-0.026329969987273216],[-0.06338755041360855,0.1189350113272667,0.0833207219839096,0.16249878704547882,0.1533394157886505,0.051804523915052414,0.15007160604000092,-0.16743339598178864,0.16020332276821136,-0.07356788218021393],[-0.017783701419830322,-0.10968117415904999,-0.18507108092308044,0.0008011670433916152,0.10642329603433609,-0.010409391485154629,0.08418231457471848,-0.04018961638212204,0.026703322306275368,0.11725965887308121],[0.06025109067559242,-0.18510101735591888,0.1755087524652481,-0.14744257926940918,-0.006182495038956404,-0.0444481261074543,-0.01146963145583868,-0.031152941286563873,0.07154200971126556,0.015522112138569355],[0.027189860120415688,0.07913979142904282,0.030316242948174477,-0.028196940198540688,0.1005895733833313,0.011124237440526485,0.03113516978919506,-0.11407861113548279,-0.10844580829143524,-0.09010132402181625],[-0.16008932888507843,-0.032968416810035706,-0.06690258532762527,0.009270130656659603,0.09666793048381805,-0.0185445174574852,-0.0023578302934765816,0.1225326880812645,-0.0073267556726932526,0.16172930598258972]],"biases":[-0.18472880125045776,0.08268982172012329,0.06273360550403595,-0.04287703335285187,-0.06344153732061386,0.12700919806957245,0.07450614869594574,0.03923716023564339,0.08291566371917725,-0.13890446722507477]},{"weights":[[0.04278812184929848,0.08785326033830643,-0.04438995197415352,0.017482008785009384,-0.026240037754178047,0.03982841968536377,-0.09716331213712692,-0.0019044849323108792,-0.0866340920329094,0.0034500458277761936],[0.008845009841024876,0.18491001427173615,-0.021013259887695312,0.18797829747200012,0.1817903220653534,-0.12764191627502441,0.11761517822742462,-0.06637522578239441,-0.13485614955425262,-0.09468644857406616],[0.02350744791328907,0.05612442269921303,0.052958037704229355,0.15224842727184296,-0.028825370594859123,0.09062644094228745,0.08588163554668427,0.0014454625779762864,0.19389213621616364,-0.1548471748828888],[0.15354280173778534,-0.05427815392613411,0.17206408083438873,-0.0071793184615671635,-0.0794917643070221,-0.0751456543803215,-0.06262849271297455,-0.15776968002319336,0.007289876230061054,0.17656442523002625],[0.10562203824520111,-0.16452845931053162,-0.12009993195533752,0.10088395327329636,0.05087544023990631,0.09623488783836365,-0.14464133977890015,-0.013446430675685406,0.17709358036518097,-0.14615266025066376],[0.11344967037439346,0.08859912306070328,0.07528742402791977,0.0742841586470604,0.004264241084456444,0.071510910987854,-0.020528441295027733,-0.19296355545520782,0.13307593762874603,-0.15933920443058014],[0.11401768028736115,0.13257603347301483,-0.14993056654930115,-0.15529374778270721,-0.10180783271789551,-0.028392920270562172,0.043870821595191956,-0.031187599524855614,-0.09112989157438278,0.10031575709581375],[0.1568397730588913,0.11343321204185486,0.0838548019528389,-0.021594282239675522,-0.1388813555240631,-0.06719489395618439,-0.11219919472932816,0.1388109028339386,0.029679415747523308,-0.1298319697380066],[0.11715199798345566,0.05560971423983574,-0.14529556035995483,0.003437901148572564,0.12987172603607178,0.09190639853477478,-0.009845634922385216,0.026487795636057854,-0.10985976457595825,0.12014185637235641],[0.0950794368982315,-0.0016815634444355965,-0.17376676201820374,-0.13862493634223938,-0.08020265400409698,-0.1861952543258667,-0.1798713058233261,-0.13257259130477905,0.11047310382127762,-0.06067635118961334]],"biases":[0.04080209881067276,0.08113636076450348,-0.0062452154234051704,0.17468243837356567,0.014393716119229794,-0.059533536434173584,-0.1213572546839714,0.16270944476127625,-0.17815633118152618,-0.010168666020035744]},{"weights":[[-0.04797070845961571,-0.181339830160141,-0.00276751141063869,0.10382460057735443,0.00991970207542181,0.08886408805847168,-0.020101342350244522,-0.09732949733734131,0.08753512054681778,-0.08054997026920319],[-0.14932085573673248,0.11999858170747757,0.172610804438591,0.15706580877304077,0.066007599234581,-0.13165929913520813,-0.050628334283828735,0.08692916482686996,-0.15636058151721954,-0.13544166088104248],[-0.059929683804512024,-0.057905666530132294,0.13464830815792084,-0.12278100103139877,-0.1384250670671463,-0.18919818103313446,-0.19152574241161346,0.013296916149556637,0.16712886095046997,0.11396392434835434],[-0.1056855171918869,0.11582837998867035,-0.1322208046913147,-0.1196945309638977,0.19427742063999176,-0.021561969071626663,0.17632587254047394,-0.03713522478938103,-0.08659397065639496,0.11559195071458817],[0.11591779440641403,0.012352729216217995,0.01541298720985651,0.05633042752742767,-0.09154398739337921,-0.08903677016496658,-0.14465707540512085,0.0579862967133522,-0.17076246440410614,0.005140362307429314],[0.14629718661308289,0.07950711250305176,-0.17198488116264343,0.1647910326719284,0.16902685165405273,0.05373161658644676,0.1855655014514923,0.11829999089241028,0.13997945189476013,-0.09725549817085266],[-0.11277738958597183,0.1837020218372345,0.1260041743516922,-0.09542124718427658,-0.015096955932676792,0.11430559307336807,-0.12446066737174988,0.14806580543518066,-0.048964615911245346,0.1741483360528946],[-0.08074633032083511,0.04559851810336113,-0.014481465332210064,0.12252780050039291,0.17644554376602173,0.052798014134168625,-0.1598331779241562,0.10393397510051727,-0.026193156838417053,0.031312715262174606],[0.06942927092313766,0.16462640464305878,0.19408677518367767,-0.037314534187316895,0.016877179965376854,0.0676923394203186,-0.09368488937616348,0.14586292207241058,0.19908224046230316,-0.0879589170217514],[-0.012582835741341114,-0.18704837560653687,0.1634126454591751,0.15779313445091248,0.060728151351213455,-0.005387437529861927,-0.13206587731838226,-0.043716803193092346,0.10703980922698975,0.0714176669716835]],"biases":[0.16524136066436768,0.046908196061849594,-0.06526292860507965,-0.1378154307603836,-0.03197021037340164,0.08514518290758133,0.1774284988641739,0.10112883895635605,-0.021192394196987152,-0.08279275894165039]},{"weights":[[0.10966619849205017,-0.07359115779399872,-0.13356080651283264,0.16228993237018585,-0.016581548377871513,0.07521358132362366,0.09610974788665771,0.08898790925741196,-0.013040044344961643,0.16248561441898346],[-0.09495288133621216,0.17679831385612488,-0.0069643124006688595,0.01663689687848091,0.16676655411720276,-0.17654560506343842,0.0317554697394371,-0.0697542279958725,0.11872296780347824,-0.08296752721071243],[0.19933298230171204,-0.01733642816543579,0.01333613507449627,0.09137941896915436,-0.18199199438095093,-0.07402530312538147,-0.008953851647675037,0.18407191336154938,0.1636831909418106,-0.10424227267503738],[0.12171760201454163,0.16730943322181702,0.19491586089134216,-0.1397792249917984,-0.06940986961126328,-0.013003873638808727,-0.19602017104625702,0.060450877994298935,0.09865666180849075,0.018345335498452187],[0.02626827359199524,-0.05635126680135727,0.14510126411914825,0.07227831333875656,0.1552402228116989,0.17697905004024506,-0.18765486776828766,-0.08101397752761841,-0.1809873878955841,0.04899115115404129],[-0.043653298169374466,0.023593351244926453,0.10308099538087845,-0.05559873208403587,0.10047752410173416,-0.017320541664958,-0.19763252139091492,-0.10372565686702728,0.09795792400836945,0.14560486376285553],[-0.11444519460201263,-0.039159223437309265,0.10694363713264465,-0.17626243829727173,0.1958184391260147,-0.09526783227920532,-0.05853791907429695,-0.014697817154228687,-0.1377275437116623,0.16001905500888824],[-0.03726603090763092,0.07208042591810226,0.16973157227039337,0.008518447168171406,-0.016404718160629272,0.0037983153015375137,-0.11753584444522858,0.1680050492286682,-0.08277003467082977,0.053785134106874466],[0.01231066882610321,-0.1354599893093109,-0.1138862818479538,-0.04007246717810631,0.03080967627465725,-0.026576489210128784,-0.12346731126308441,0.029243936762213707,0.1395655870437622,-0.08834929019212723],[0.14474131166934967,-0.02322416752576828,-0.12206460535526276,0.16621512174606323,0.08225056529045105,-0.029021015390753746,0.017160622403025627,0.10747423768043518,-0.1393299400806427,0.16392140090465546]],"biases":[-0.15879681706428528,-0.09221778064966202,-0.06226396560668945,-0.11023063212633133,0.018554827198386192,-0.0938231498003006,-0.053552646189928055,-0.16021037101745605,-0.10222265869379044,-0.18230198323726654]},{"weights":[[-0.09526210278272629,-0.060482967644929886,-0.1790020912885666,0.16466698050498962,0.1479545682668686,-0.006931433919817209,0.1916077733039856,0.18259036540985107,0.106352798640728,0.19482611119747162],[0.0508316308259964,-0.04388540983200073,0.027317969128489494,0.11877280473709106,0.07828111201524734,-0.027237936854362488,0.1997583508491516,-0.06417690217494965,0.008881768211722374,-0.18664661049842834],[0.02006087265908718,-0.08155795186758041,0.06078874319791794,-0.0319472998380661,-0.07281824946403503,-0.1212494820356369,0.19729751348495483,-0.19681201875209808,-0.1560344696044922,-0.0866958424448967],[-0.03781360760331154,0.04567063972353935,-0.04242049902677536,-0.13159985840320587,0.015537871047854424,-0.009864957071840763,-0.19611620903015137,-0.05492619797587395,0.007875960320234299,-0.04398108646273613],[0.17935895919799805,-0.05284157767891884,-0.11965872347354889,-0.1634398251771927,0.00634883064776659,-0.04808321222662926,0.1374393105506897,0.05767121538519859,0.012947415001690388,-0.0646689161658287],[0.09340383857488632,-0.04561636224389076,0.050112269818782806,0.08255193382501602,-0.10564369708299637,0.03739944100379944,0.1703260987997055,-0.19416281580924988,0.09449426084756851,-0.041918378323316574],[-0.016662979498505592,0.16131308674812317,0.11188466101884842,0.07123606652021408,-0.031645964831113815,-0.17212219536304474,0.1104823499917984,-0.050731584429740906,-0.13721057772636414,0.0984208956360817],[-0.13340607285499573,-0.059217892587184906,-0.15204183757305145,-0.06155547499656677,0.1653416007757187,0.045350082218647,0.05791439116001129,-0.08638480305671692,0.12682662904262543,0.18749715387821198],[0.09019363671541214,0.12896326184272766,-0.10069683194160461,0.16960158944129944,-0.0013604797422885895,0.14156191051006317,-0.1917448192834854,0.11826887726783752,0.10544681549072266,-0.15862759947776794],[0.0010772872483357787,-0.12173096090555191,0.003450307296589017,0.1799120008945465,-0.15805529057979584,0.04483434930443764,-0.14122912287712097,-0.13039763271808624,0.07359107583761215,0.08648572862148285]],"biases":[-0.062412187457084656,-0.16760016977787018,-0.16572974622249603,-0.08144567906856537,0.1487886607646942,-0.04871702566742897,-0.1894981861114502,-0.1587366908788681,0.0861285999417305,-0.14694520831108093]},{"weights":[[0.19816718995571136,0.06856805086135864,-0.19832481443881989,-0.1586696356534958,0.06133192777633667,0.0609900988638401,0.07516158372163773,0.030790163204073906,0.1474933624267578,0.14441779255867004],[0.07268274575471878,0.15574562549591064,-0.06913547217845917,-0.01978665590286255,-0.0011680539464578032,0.061421073973178864,-0.11045213043689728,0.09851723164319992,0.03109598532319069,-0.13424745202064514],[-0.0589149035513401,-0.0030802700202912092,0.05010378360748291,0.08360201865434647,-0.007130745332688093,0.08859489113092422,-0.18768197298049927,-0.030164536088705063,0.18872402608394623,0.11090633273124695],[-0.1104617565870285,0.15344220399856567,-0.11188259720802307,-0.05421025678515434,0.13978546857833862,-0.017170384526252747,0.13395245373249054,0.09814296662807465,0.1693551242351532,-0.06587495654821396],[-0.02715025655925274,0.19472607970237732,0.012117866426706314,-0.12682703137397766,0.10751578211784363,0.10910874605178833,0.1617196500301361,-0.047871194779872894,-0.07885733991861343,-0.0976518914103508],[0.1108807921409607,0.09142786264419556,-0.05964502692222595,-0.05168963596224785,-0.12254523485898972,0.177159383893013,0.10210327804088593,-0.12845782935619354,-0.13045908510684967,-0.13673147559165955],[0.15226401388645172,0.1505271941423416,-0.026598433032631874,0.1917792111635208,-0.1512720286846161,-0.17767344415187836,-0.09710177034139633,-0.02687501348555088,-0.1459536999464035,-0.16890180110931396],[0.17472614347934723,0.09317628294229507,-0.08283790946006775,-0.09324518591165543,-0.10886114835739136,-0.11627539247274399,0.045982055366039276,-0.16812501847743988,-0.09317672997713089,-0.10295341163873672],[-0.0912187471985817,-0.12308529764413834,0.07109197974205017,0.18072883784770966,0.08426694571971893,-0.1450568437576294,0.15526486933231354,-0.14731335639953613,0.19507314264774323,-0.11300988495349884],[-0.12475156784057617,0.15251916646957397,0.04729205742478371,-0.08080634474754333,0.11895723640918732,0.15739409625530243,0.13389483094215393,-0.08693530410528183,0.05860782787203789,0.13682743906974792]],"biases":[0.012527969665825367,-0.08184802532196045,-0.09028293937444687,0.09529817849397659,-0.1159944161772728,0.017251014709472656,0.08869891613721848,-0.08832738548517227,0.11792703717947006,-0.17411839962005615]},{"weights":[[-0.1956709772348404,-0.09178952127695084,0.15327203273773193,-0.1605578511953354,0.17508049309253693,0.12622395157814026,0.12921075522899628,0.06056683883070946,0.1296081393957138,0.01081299502402544],[-0.14460818469524384,-0.1460220068693161,-0.07794421911239624,0.1736510545015335,0.13046905398368835,-0.08284518867731094,-0.15363356471061707,0.17178896069526672,0.14142972230911255,0.02167576365172863],[0.19559930264949799,-0.09938539564609528,0.0996863842010498,0.17316141724586487,-0.13691656291484833,-0.1646539717912674,0.037670597434043884,0.15797702968120575,0.14034169912338257,0.09717266261577606],[0.10366996377706528,0.045197147876024246,-0.09043128043413162,0.08820012956857681,0.18733258545398712,-0.07461632788181305,0.16514001786708832,-0.17410413920879364,-0.010364413261413574,0.05773681774735451],[-0.06702644377946854,0.008022568188607693,0.13734598457813263,-0.05553745850920677,-0.1426725536584854,-0.18843767046928406,-0.10531648993492126,-0.04180291295051575,0.0468561053276062,-0.02529713697731495],[-0.03168642148375511,-0.19573469460010529,-0.08602060377597809,-0.1169661283493042,-0.07965439558029175,0.08895105123519897,-0.0358654223382473,0.0619581937789917,-0.1147088035941124,-0.14136578142642975],[-0.07373274862766266,0.0538666658103466,-0.15134219825267792,0.04257989674806595,-0.17224285006523132,-0.02675667405128479,0.06668881326913834,-0.1699451506137848,0.0558747835457325,-0.17040087282657623],[0.04498811438679695,-0.18044893443584442,0.08943448960781097,0.008615725673735142,-0.04465320706367493,0.17800436913967133,0.06920887529850006,0.017192069441080093,-0.0898934155702591,0.023683616891503334],[-0.12285242229700089,-0.00467480206862092,-0.09513835608959198,0.1236320436000824,0.12921077013015747,-0.1608535796403885,0.03465811535716057,0.1339111030101776,0.13587358593940735,0.17085827887058258],[0.18522614240646362,-0.15880855917930603,0.19197364151477814,0.0959908664226532,-0.1859825998544693,-0.17493411898612976,-0.024633081629872322,0.05456725135445595,-0.008678756654262543,0.10112643986940384]],"biases":[0.12541607022285461,-0.11169756948947906,-0.09289051592350006,0.056325763463974,-0.09621626883745193,0.07038813829421997,0.0849446952342987,-0.08567794412374496,-0.06392819434404373,-0.01396099291741848]},{"weights":[[0.15848739445209503,0.13397762179374695,0.18735231459140778,-0.07344596832990646,-0.14362843334674835,-0.029250474646687508,0.0031486894004046917,-0.14811740815639496,0.16760846972465515,0.11457185447216034],[0.12885309755802155,-0.17455340921878815,-0.03974655643105507,-0.03519779071211815,-0.19173981249332428,-0.0435609333217144,0.08852443844079971,0.1958305686712265,-0.12112724781036377,0.06892663240432739],[0.02960403449833393,0.08498706668615341,-0.16604942083358765,-0.1687488704919815,-0.052443187683820724,0.18887270987033844,-0.043276596814394,-0.1758495569229126,0.19427262246608734,0.17867621779441833],[-0.1907368004322052,0.1673106700181961,-0.080289326608181,-0.13433630764484406,0.10257986187934875,-0.108826644718647,0.18887105584144592,0.15448512136936188,-0.03242292255163193,0.13607482612133026],[-0.17143352329730988,0.16158562898635864,-0.137955442070961,-0.05068778991699219,0.0056543489918112755,-0.0791977196931839,0.15671421587467194,0.09187556058168411,0.0565163679420948,-0.09073185175657272],[-0.18778257071971893,-0.037328872829675674,0.02117457054555416,0.15374656021595,0.05377720668911934,0.11563451588153839,-0.09746059775352478,0.18612158298492432,0.02156006172299385,0.01741032302379608],[0.05598801001906395,0.14663910865783691,-0.11062348634004593,0.0690997764468193,-0.07239118963479996,-0.13596922159194946,-0.04241841658949852,-0.13901375234127045,0.0030826320871710777,-0.13507120311260223],[-0.19329005479812622,-0.14698943495750427,-0.143299862742424,0.1696770191192627,0.15933500230312347,-0.18312425911426544,-0.1826428920030594,-0.09720424562692642,-0.019346702843904495,-0.1437777429819107],[-0.08543524146080017,-0.09835276007652283,0.19148477911949158,0.006079492624849081,-0.0678490549325943,0.06313498318195343,-0.05290224403142929,0.1037261113524437,0.0595124177634716,-0.0011881827376782894],[0.026801127940416336,0.12824632227420807,0.16842807829380035,0.02533429116010666,0.1984083354473114,-0.06367369741201401,0.03389180824160576,-0.11331235617399216,0.024510355666279793,0.1488451212644577]],"biases":[0.08649849891662598,-0.022995274513959885,0.19007547199726105,0.1802758276462555,-0.13961343467235565,0.1648760437965393,-0.17339330911636353,0.13717275857925415,-0.010873038321733475,-0.17566855251789093]},{"weights":[[-0.08286561071872711,0.05929494649171829,-0.0972241461277008,0.15543629229068756,-0.12178108096122742,0.1473294496536255,0.053479842841625214,0.08709746599197388,0.09892056882381439,0.014854177832603455],[0.07748030126094818,-0.06861578673124313,0.14155617356300354,0.06346806138753891,0.1888267546892166,-0.0844818726181984,-0.009413262829184532,-0.03657147288322449,-0.07197616249322891,-0.1376514881849289],[-0.009462890215218067,-0.0027930554933845997,-0.09465852379798889,-0.02236870676279068,0.1707172840833664,-0.15238235890865326,0.15588925778865814,-0.03938847407698631,0.08710891753435135,-0.004630205221474171],[0.00020665502233896405,0.009117856621742249,-0.12003039568662643,0.08506479114294052,-0.098980613052845,-0.011417141184210777,0.032423485070466995,0.16203823685646057,0.06025918945670128,0.19661396741867065],[-0.0420718751847744,0.019286200404167175,0.13848471641540527,0.03844941407442093,-0.18191754817962646,0.10750368982553482,-0.08039180934429169,0.11102201044559479,-0.010973891243338585,0.14160002768039703],[-0.168809175491333,0.1460263431072235,-0.019869545474648476,0.08751218765974045,0.06854217499494553,-0.03169792890548706,-0.15027187764644623,-0.19959931075572968,-0.12943874299526215,-0.18440121412277222],[-0.17558901011943817,-0.19222663342952728,0.04155680537223816,-0.1356031447649002,-0.006241689436137676,-0.14130736887454987,0.09515941143035889,0.055819086730480194,-0.19210821390151978,-0.1263098269701004],[0.025871260091662407,0.12040096521377563,-0.1558120995759964,0.05225621908903122,0.008729112334549427,0.033565569669008255,-0.1077003926038742,-0.07132149487733841,-0.04717693850398064,-0.09768307209014893],[0.13320739567279816,-0.15725387632846832,0.06488729268312454,-0.18240603804588318,-0.16001228988170624,0.0404166579246521,0.17276161909103394,-0.05497216433286667,0.07955073565244675,-0.15371327102184296],[0.19907186925411224,0.17292523384094238,-0.06752811372280121,0.1288379728794098,-0.1938866823911667,-0.060713861137628555,0.002596807898953557,-0.19275693595409393,-0.1303265392780304,0.03169090673327446]],"biases":[0.1943914294242859,0.0005985827301628888,-0.052312616258859634,0.10913850367069244,0.10773319751024246,0.17586953938007355,0.08110132068395615,-0.05659649521112442,0.05672148987650871,0.1931355595588684]},{"weights":[[0.030901717022061348,0.04191618040204048,0.0625,-0.010936079546809196,-0.17997966706752777,0.20737139880657196,0.1880326271057129,-0.140021413564682,0.0625,0.1969010978937149],[-0.07544872164726257,-0.09250105172395706,0.003644720884039998,0.050853244960308075,-0.11086948215961456,-0.024298550561070442,-0.03414520248770714,0.18250861763954163,0.05669762194156647,-0.03364874795079231],[0.049458540976047516,0.059944357722997665,0.02556517720222473,0.11041909456253052,-0.08022841811180115,0.00988764874637127,-0.013722078874707222,0.16613538563251495,0.10274903476238251,-0.07169405370950699],[0.0707813948392868,0.16453461349010468,0.019000036641955376,0.08005065470933914,-0.07227563858032227,0.12175112217664719,0.029223499819636345,0.11230688542127609,0.125,-0.1170024573802948],[-0.19470137357711792,0.14983916282653809,-0.15908625721931458,-0.05703088268637657,0.05229925736784935,-0.06303024291992188,-0.007461341563612223,-0.19573275744915009,0.11463750153779984,-0.17571526765823364],[-0.06371379643678665,-0.03974887728691101,-0.1599147617816925,0.1352504938840866,-0.19712379574775696,0.12460468709468842,0.08660806715488434,0.1455574780702591,-0.0687137022614479,0.00039767532143741846],[0.12498405575752258,0.0812186524271965,0.1306762397289276,-0.11488370597362518,-0.012139703147113323,0.027765339240431786,-0.07384699583053589,0.18868842720985413,-0.053860653191804886,0.05893617495894432],[0.1402198225259781,0.1674262434244156,0.1172371357679367,-0.15648996829986572,0.0295491274446249,-0.0005023585399612784,-0.14177297055721283,-0.14556147158145905,0.15012110769748688,-0.13276301324367523],[-0.01932591386139393,-0.01619800738990307,0.09840469062328339,0.04224931076169014,-0.05361011251807213,-0.038608305156230927,-0.06373783946037292,0.027932029217481613,0.1125006303191185,-0.006051758769899607],[-0.17985309660434723,-0.17740993201732635,0.18745438754558563,0.022105444222688675,0.1660369336605072,-0.00857196468859911,0.052493106573820114,0.18715132772922516,0.15366850793361664,0.020645469427108765]],"biases":[-0.11547042429447174,0.10915668308734894,0.1766456961631775,0.13923771679401398,0.13735023140907288,0.008808902464807034,0.13094983994960785,0.21851405501365662,0.050613660365343094,0.04761487618088722]},{"weights":[[-0.09352521598339081,0.20975898206233978,-0.11128119379281998,0.20451807975769043,0.22277456521987915,0.1571141630411148,-0.13877157866954803,0.0006664778338745236,0.1528555005788803,-0.11163635551929474],[0.2419823259115219,0.09172489494085312,0.15426085889339447,0.25,0.1601341813802719,-0.10418987274169922,-0.05437546968460083,0.21779264509677887,0.16718998551368713,0.17963220179080963],[0.25,-0.09234374761581421,-0.1195569783449173,0.17967262864112854,0.019677450880408287,0.042813315987586975,0.2388084977865219,0.01827687956392765,0.010432400740683079,0.041130438446998596],[0.10878650844097137,-0.09888315200805664,0.125,0.08918941766023636,0.14256054162979126,-0.01064984779804945,0.21959741413593292,0.20680002868175507,0.10565992444753647,0.2461720108985901],[0.12047532200813293,-0.05525682121515274,-0.06718332320451736,-0.03282037377357483,-0.09278763830661774,-0.08808545023202896,0.11914453655481339,0.30276745557785034,0.2089068442583084,0.23729798197746277],[0.05507614091038704,0.0624999962747097,0.25,0.28148606419563293,0.05724553391337395,0.212900772690773,0.11162249743938446,0.012246896512806416,-0.03366725519299507,0.22109785676002502],[-0.051676325500011444,-0.00018603108765091747,-0.06216387078166008,0.22891192138195038,-0.04567509889602661,0.2247713804244995,0.02298705093562603,0.1102960929274559,0.0753750279545784,0.09703186899423599],[0.20819097757339478,0.125,-0.053908273577690125,0.19682878255844116,-0.05818716064095497,0.14093227684497833,0.23230686783790588,-0.05814604088664055,-0.11212965101003647,0.10637562721967697],[0.2034064680337906,0.1581433117389679,0.03836486488580704,0.11649811267852783,0.14351165294647217,0.03204263001680374,-0.08449962735176086,0.25,-0.08670151233673096,-0.07242290675640106],[0.08945810049772263,0.125,-0.1733415722846985,-0.11522911489009857,0.05162273719906807,0.1538246124982834,-0.09003131091594696,0.157216876745224,0.03046480007469654,-0.17205552756786346]],"biases":[0.024208102375268936,0.1881083846092224,0.06690576672554016,0.0873127356171608,0.31146273016929626,0.15880411863327026,-0.09721355885267258,-0.1349450945854187,0.14842723309993744,-0.053594090044498444]},{"weights":[[0.18868319690227509,0.20459342002868652,0.2890944480895996,0.4796750247478485,0.1978951394557953,0.11218814551830292,0.3257943391799927,0.09941486269235611,0.21603675186634064,0.07656002044677734],[0.2198595255613327,0.16817672550678253,0.42025086283683777,0.10983726382255554,0.19477538764476776,0.21430084109306335,0.04942140728235245,0.06955549120903015,0.1435309648513794,0.08827418088912964],[0.28721967339515686,0.31447428464889526,0.2252454161643982,0.45321929454803467,0.4437049925327301,0.45048174262046814,0.07338432967662811,0.07885847985744476,0.14170481264591217,0.284664511680603],[0.25,0.5,0.20953235030174255,0.32892313599586487,0.3567441701889038,0.4482298493385315,0.11931242048740387,0.2165059596300125,0.1183319240808487,0.1718350648880005],[0.08854853361845016,0.16982850432395935,0.3460451066493988,0.32765981554985046,0.3960755169391632,0.46550437808036804,0.16530059278011322,0.1249999925494194,0.33524611592292786,0.08555491268634796],[0.11203756183385849,0.20126941800117493,0.3652719259262085,0.12103001773357391,0.1456880271434784,0.418927937746048,0.3389619290828705,0.36610087752342224,0.13534300029277802,0.1249999925494194],[0.3068000078201294,0.16189751029014587,0.14351944625377655,0.17689849436283112,0.38974055647850037,0.3390444815158844,0.2395634651184082,0.2042515128850937,0.3167720139026642,0.20596115291118622],[0.09747492522001266,0.2943887710571289,0.11326063424348831,0.1250000149011612,0.44904574751853943,0.4502333104610443,0.2348112314939499,0.1543024778366089,0.37002623081207275,0.03271498903632164],[0.1354854702949524,0.2699846029281616,0.3724118769168854,0.09018158167600632,0.2591100037097931,0.44793349504470825,0.39134135842323303,0.038876522332429886,0.42430001497268677,0.14115874469280243],[0.3238546848297119,0.3709730803966522,0.07038649916648865,0.22258514165878296,0.1696258932352066,0.08799457550048828,0.1103488877415657,0.3541180491447449,0.1998828649520874,0.012045837007462978]],"biases":[0.4434974193572998,0.6223142743110657,0.3845233619213104,0.41381049156188965,0.6027699708938599,0.3376823365688324,0.44766920804977417,0.3922095000743866,0.49325698614120483,0.2908744812011719]},{"weights":[[-0.5839691758155823,-0.5009737610816956,-0.543682873249054,-0.5701444149017334,-0.585495114326477,-0.4235765039920807,-0.7616598010063171,-0.4813157916069031,-0.6495988965034485,-0.6927537322044373],[-0.532041072845459,-0.5837865471839905,-0.6876536011695862,-0.590467631816864,-0.6272982358932495,-0.36977332830429077,-0.713111400604248,-0.7124024033546448,-0.7139720320701599,-0.4659862816333771],[-0.5878512263298035,-0.37853357195854187,-0.5240205526351929,-0.7388153672218323,-0.5407247543334961,-0.46767836809158325,-0.573550283908844,-0.4999999403953552,-0.63795006275177,-0.7180890440940857],[-0.5342614054679871,-0.5203190445899963,-0.5152701735496521,-0.5658972859382629,-0.6742649674415588,-0.5014463663101196,-0.838787853717804,-0.600667417049408,-0.5745726227760315,-0.4261883497238159],[-0.5115062594413757,-0.5863664746284485,-0.4992313086986542,-0.42286866903305054,-0.640909731388092,-0.7002440690994263,-0.7368993163108826,-0.5628945827484131,-0.7501926422119141,-0.42791569232940674],[-0.6575808525085449,-0.5908164381980896,-0.6114184856414795,-0.7380942702293396,-0.5904112458229065,-0.7517403364181519,-0.5,-0.4094747304916382,-0.6349157691001892,-0.4222390651702881],[-0.4305073320865631,-0.7489034533500671,-0.8054313659667969,-0.7293471693992615,-0.8321090936660767,-0.6305498480796814,-0.5038294792175293,-0.4622666835784912,-0.5014047026634216,-0.36487406492233276],[-0.4832737445831299,-0.6167738437652588,-0.5,-0.6924627423286438,-0.7802885174751282,-0.5,-0.56236332654953,-0.5846471190452576,-0.6134500503540039,-0.753934383392334],[-0.687225878238678,-0.5464493036270142,-0.6749838590621948,-0.7556744813919067,-0.6676986813545227,-0.40083950757980347,-0.43111732602119446,-0.7419247627258301,-0.5465520024299622,-0.6459441781044006],[-0.565750777721405,-0.3396119177341461,-0.6533993482589722,-0.7105990648269653,-0.5981391072273254,-0.5648590326309204,-0.6077829003334045,-0.6784651875495911,-0.5341554284095764,-0.3083902895450592]],"biases":[-0.8604779839515686,-0.8118972182273865,-1.0125852823257446,-0.9115570783615112,-0.8338505625724792,-0.9782236814498901,-0.7278575897216797,-0.809798002243042,-0.7053678631782532,-0.9854463338851929]},{"weights":[[0.0019147867569699883,0.0007250946946442127,0.002770639955997467,0.0020751934498548508,-0.002243758412078023,-0.00022132901358418167,-0.0021938818972557783,-0.00021075320546515286,-0.0025621154345571995,-0.0020595805253833532]],"biases":[-0.1865110993385315]}],"inputLookup":null,"inputLookupLength":0,"outputLookup":null,"outputLookupLength":0,"options":{"inputSize":0,"outputSize":0,"binaryThresh":0.5,"hiddenLayers":[10,10,10,10,10,10,10,10,10,10,10,10,10,10,10]},"trainOpts":{"activation":"sigmoid","iterations":1000000,"errorThresh":0.005,"log":true,"logPeriod":10,"leakyReluAlpha":0.01,"learningRate":0.3,"momentum":0.1,"callbackPeriod":10,"timeout":"Infinity","beta1":0.9,"beta2":0.999,"epsilon":1e-8}}